tree
version=v2
num_class=1
num_tree_per_iteration=1
label_index=0
max_feature_idx=6
objective=binary sigmoid:1
feature_names=ps_reg_01 ps_reg_02 ps_reg_03 ps_car_12 ps_car_13 ps_car_14 ps_car_15
feature_infos=[0:0.90000000000000002] [0:1.8] [-1:2.8635642126999996] [0.14142135619999999:1.2649110640999999] [0.32934947149999999:2.7072751693999999] [-1:0.57532599449999999] [0:3.7416573868]
tree_sizes=4875 4993 4994 4987 4989 4984 4972 4983 4983 4994 4994 4986 4986 4983 4961 5001 4972 4989 4995 4991 5000 4996 4983 5000 4994 4997 5007 4987 4990 4999 5008 5004 4991 5001 5000 4978 4966 5007 4994 4995 5005 5004 5008 5018 5020 5001 4998 5003 5010 5009 5025 5015 5000 5015 5011 5002 5004 5005 5009 4988 5001 5021 5006 5011 5006 5014 5000 5002 5005 5002 5001 5016 4993 5005 4997 4988 5005 5000 4998 5034 5024 5013 5037 5014 5004 5019 5023 5012 4998 5025 5013 5004 5016 5017 5016 5021 5009 5023 4993 5018

Tree=0
num_leaves=64
num_cat=0
split_feature=4 3 5 2 4 5 4 2 0 2 2 2 2 4 4 5 6 3 0 5 5 2 2 2 0 4 0 0 5 5 5 3 5 0 5 2 2 4 2 4 4 4 3 5 6 0 0 5 4 6 3 6 0 2 2 6 5 2 5 3 2 2 5
split_gain=21.8254 9.86617 7.52565 6.6402 6.52406 7.48745 9.28435 19.9926 7.18874 10.5207 13.3103 8.39342 13.9394 6.80161 6.56954 5.65352 5.38139 5.12932 4.81694 4.78645 6.90803 4.77308 8.30859 4.59844 4.02622 8.54774 4.36412 3.92823 3.65892 4.95442 19.0447 6.96295 6.95261 6.7428 5.38714 4.33512 3.91511 7.67146 3.47615 3.44659 4.73073 9.14287 6.29232 6.62146 8.86093 12.7144 7.99324 7.41727 9.96121 10.4547 4.32458 3.36875 3.33211 3.30058 3.22583 3.11944 10.485 3.05455 5.02045 2.93719 4.14125 2.81062 2.76474
threshold=0.83603006955000014 0.50024987510000007 0.41988086800000007 0.62224387255000013 0.86312783720000008 0.31336875170000006 0.85036453040000015 0.63319620905000007 0.65000000000000002 0.93122901150000004 1.0590384687000001 0.62873876790000016 0.60595992730000015 0.97932658930000016 0.99571913310000004 0.32488458580000007 3.2394512253000003 0.42420513495000006 0.8500000000000002 0.35587913060000009 0.35078482710000009 1.0538619037000003 1.1857221706000003 0.87374908755000014 0.8500000000000002 1.5195352787500003 0.45000000000000007 0.8500000000000002 0.40963391020000001 0.31456317920000004 0.32449946845000005 0.42996224345000006 0.36407416180000002 0.8500000000000002 0.40484563075000007 0.81967972685000012 1.1523074597 0.9070886921500001 1.5980456694500003 0.76710521640000018 0.60958256860000015 0.61536205100000008 0.37067024925000008 0.39981241205000001 2.7370892179000008 0.8500000000000002 0.65000000000000002 0.37060755395000006 0.69801222985000011 3.2394512253000003 0.38710458850000007 3.0811388301000004 0.45000000000000007 0.64590048885000007 1.1644472860500001 3.3903632027500001 0.39357335260000004 0.70422826610000011 0.38255717970000003 0.46893495140000002 0.41795617025000004 1.2682418873500001 0.37463314795000008
decision_type=2 2 2 2 2 2 2 2 2 2 2 2 2 2 2 2 2 2 2 2 2 2 2 2 2 2 2 2 2 2 2 2 2 2 2 2 2 2 2 2 2 2 2 2 2 2 2 2 2 2 2 2 2 2 2 2 2 2 2 2 2 2 2
left_child=3 4 -3 -1 5 -2 23 -8 9 59 14 12 13 18 -11 -5 -9 -12 -10 20 21 52 -23 -7 25 26 -4 -24 29 35 -31 34 -33 -34 36 -13 57 -38 -35 40 53 -42 51 44 46 -46 -44 -47 -49 -50 -48 -43 -17 -21 -45 -41 -57 58 -32 -6 -61 -39 -53
right_child=1 2 24 15 8 6 7 16 11 10 17 28 -14 -15 -16 19 -18 -19 -20 39 -22 22 27 -25 -26 -27 -28 -29 -30 30 31 32 33 38 -36 -37 37 61 -40 55 41 42 43 54 45 47 50 48 49 -51 -52 62 -54 -55 -56 56 -58 -59 -60 60 -62 -63 -64
leaf_value=-3.2134604377928428 -3.1787566811280716 -3.2115891736300513 -3.1904504455808311 -3.2137671031866373 -3.2151276797809394 -3.2186354163131243 -3.159133811433839 -3.1888846138734817 -3.2024077058915013 -3.1931347285077165 -3.1918596941174462 -3.1918596941174462 -3.1516961108239285 -3.2131709832119655 -3.1516961108239285 -3.1956847972882572 -3.2186354163131243 -3.2186354163131243 -3.1752153262660783 -3.1942938506806895 -3.179259354260656 -3.1650839719217676 -3.2186354163131243 -3.1963223144833925 -3.1671436428598967 -3.1684309371962276 -3.2186354163131243 -3.1909363933520778 -3.2111977157032139 -3.1516961108239285 -3.2186354163131243 -3.1690507455803867 -3.1774419975505421 -3.2186354163131243 -3.1871345666711499 -3.2186354163131243 -3.1814469132635712 -3.1931347285077165 -3.1918596941174462 -3.2186354163131243 -3.1740092126536603 -3.2186354163131243 -3.1577815022320372 -3.2160853475325837 -3.2145475197947002 -3.2186354163131243 -3.1757942608000391 -3.1516961108239285 -3.2113987346386166 -3.1690507455803867 -3.2022421170096478 -3.2056029851559358 -3.2139379211910755 -3.2152460843896207 -3.1942938506806895 -3.2144517097200498 -3.1789676797269344 -3.2168738556423562 -3.1851657635685262 -3.1877403522411876 -3.2186354163131243 -3.2147548768644754 -3.2186354163131243
leaf_count=1397 47 38 38 495 458 79 36 27 33 21 30 20 20 49 20 35 41 53 37 22 34 20 26 36 26 32 24 29 216 20 24 27 26 37 34 85 36 21 20 156 24 115 22 105 131 20 25 20 37 27 49 226 114 237 22 128 27 152 24 26 21 69 54
internal_value=0 0.430031 1.67104 -0.24393 0.323755 1.07344 0.671262 1.79162 0.197462 -0.231622 1.1189 0.48156 1.65641 0.984627 3.53104 -0.0667655 0.140854 -0.0726309 2.01965 0.0745727 0.723864 0.393986 1.45864 -0.341931 2.30654 1.80805 0.687038 0.420066 0.280199 0.489613 0.70819 0.497752 1.63714 0.895166 0.149604 -0.530414 -0.0548187 0.659618 -0.100929 -0.0411959 0.0909404 0.272407 0.183784 0.596516 0.981907 0.440782 2.30654 1.79162 2.46592 1.4698 1.49241 -0.294775 -0.141914 -0.523522 -0.407931 -0.523855 -0.00394853 -0.504914 0.633055 -0.563237 0.668661 -0.147904 0.0114753
internal_count=5600 2003 158 3597 1845 266 219 104 1579 629 124 950 139 119 41 2200 68 83 70 1705 258 224 75 115 120 94 62 55 811 595 490 470 110 83 360 105 326 126 57 1447 1136 877 853 458 331 235 96 104 84 64 74 395 149 259 127 311 155 200 48 505 47 90 280
shrinkage=1


Tree=1
num_leaves=64
num_cat=0
split_feature=3 1 5 5 1 5 6 0 2 5 5 2 2 5 6 6 0 2 2 0 2 2 1 2 5 2 5 2 3 2 5 2 5 2 3 0 1 6 2 5 5 5 2 2 3 6 3 5 2 5 5 5 5 3 5 1 1 5 5 2 2 2 5
split_gain=15.9717 13.6001 8.86752 10.2139 14.0823 7.61638 7.06727 14.4461 4.61186 4.08859 10.196 4.35199 9.00818 5.26934 4.96052 3.97248 5.92577 6.25821 7.498 5.54904 5.33454 6.36627 5.02269 5.00769 6.35814 6.89367 15.1286 22.518 8.8638 8.7648 5.49465 5.24219 5.28823 4.22231 3.65592 3.65544 7.48537 5.99639 7.81847 3.42137 4.33644 3.41148 4.2633 8.57401 3.75917 2.98347 5.93437 5.4597 2.77613 2.83843 2.73691 3.78518 3.74833 4.86308 2.66585 2.62669 2.62442 9.23346 6.95676 11.2395 2.52887 2.42932 2.35252
threshold=0.50024987510000007 0.75000000000000011 0.31224887340000002 0.35902643440000009 0.8500000000000002 0.41988086800000007 3.5348264453000007 0.8500000000000002 1.5137907680000002 0.38606993640000004 0.38865150955000011 1.3255894443500003 1.2758575488500001 0.39287397920000006 3.3903632027500001 3.0811388301000004 0.75000000000000011 1.1156556280500001 1.3135115096000003 1.0000000180025095e-35 0.59450603945000013 0.69888300165000017 1.0000000180025095e-35 0.97899819945000011 0.36159368805000008 0.83684673930000009 0.31882588455000005 0.88934665295000015 0.42420513495000006 0.66497176240000011 0.40155941665 0.49085374470000004 -1.0000000180025095e-35 1.2269117140500001 0.44715768680000006 0.8500000000000002 0.55000000000000016 3.0811388301000004 0.58922612780000005 0.37887992245000007 0.37986819300000002 0.37155079795000007 1.3880066597000003 1.5789630690000003 0.39993749025000008 3.2394512253000003 0.42420513495000006 0.42473519530000009 1.0236271180000003 0.49141359175000004 0.37449966025000009 0.39855990275000003 0.39357335260000004 0.38710458850000007 0.39591665290000005 0.65000000000000002 1.0000000180025095e-35 0.36297366490000005 0.33786084520000004 0.68305376630000014 1.1936027324000003 1.0641897921500003 0.44130479235000003
decision_type=2 2 2 2 2 2 2 2 2 2 2 2 2 2 2 2 2 2 2 2 2 2 2 2 2 2 2 2 2 2 2 2 2 2 2 2 2 2 2 2 2 2 2 2 2 2 2 2 2 2 2 2 2 2 2 2 2 2 2 2 2 2 2
left_child=1 15 -3 4 -4 -2 8 -8 60 41 -11 12 14 -13 54 19 17 39 33 20 -1 -22 -18 24 25 28 -27 -28 29 31 -25 -24 -33 -19 -16 36 37 -7 -39 55 -41 42 44 -44 -5 46 -42 -48 49 -47 -26 52 53 -52 -12 -17 57 58 -21 -60 -6 -43 -58
right_child=5 2 3 9 6 35 7 -9 -10 10 11 13 -14 -15 34 16 22 18 -20 56 21 -23 23 30 50 26 27 -29 -30 -31 -32 32 -34 -35 -36 -37 -38 38 -40 40 45 61 43 -45 -46 48 47 -49 -50 -51 51 -53 -54 -55 -56 -57 62 -59 59 -61 -62 -63 -64
leaf_value=-0.010402172578463542 -0.0036876119419264374 -0.0068876746079780862 0.044231477679581577 -0.010403836158180415 0.0085813273821350646 0.0072727572007374808 0.049573213257161068 0.0027736292368545396 0.017595052002206065 0.042653452676796003 0.012413349738711619 0.020225029305040488 0.04286113452311921 -0.0049513563736905955 0.026752074137697264 -0.0054214688966840096 0.027667644943962785 0.011306898287171055 -0.010402949524056404 -0.00080426282260282031 0.04313835646576996 0.0023468673385454867 -0.01040353232667395 -0.010404172189965831 -0.0077438819836195515 -0.0029324484973203735 0.074982362859906018 0.0023499684807652818 0.035488639391063226 -0.0080947889610612361 0.012529089160814877 0.039873219925600507 0.010704182052041065 0.040304695156827941 0.001225448856223274 0.039158959694236793 -0.010408091096537973 0.057587287644466974 0.014471101235635339 0.020620469259278181 -0.0025943836016880002 0.0053740448711112922 0.042711913846689001 -0.0011980479734168832 0.010561229821260929 -0.0044224257335353555 0.040781938473147032 0.0029769085417573698 0.016011768959581344 0.015012568463929683 0.0095487047955353198 -0.0045213857516756282 0.022885709548346005 -0.010404743255445095 -0.0044030811793314912 0.011907847131588918 -0.0054913754163231155 -0.0084120653780563864 0.0003414782740241805 0.048395328828560978 -0.010406162332660663 -0.010405919558550272 0.010238245587179496
leaf_count=20 40 153 39 57 28 30 31 40 38 20 35 26 20 147 43 970 21 37 29 56 20 21 23 139 101 36 25 21 23 116 35 21 76 21 23 26 20 23 21 26 69 34 20 29 38 448 21 20 20 21 107 136 32 47 89 24 1366 135 25 27 56 113 26
internal_value=0 -0.050703 0.468395 0.65796 1.59388 1.59577 1.02372 2.31232 0.268874 0.343773 0.680577 0.492289 0.991899 -0.114645 0.644525 -0.179708 -0.0551415 -0.238442 1.11325 -0.375759 1.15777 2.22475 0.269876 0.213793 0.393928 0.919258 2.22796 4.18915 0.506329 0.205895 -0.578679 1.18398 1.70825 2.18447 1.78823 2.23471 1.75983 2.50846 3.70349 -0.311242 -0.0112011 -0.123039 0.441924 1.6781 -0.197185 -0.100896 0.671045 2.2302 -0.273805 -0.354883 -0.0295177 0.202654 0.681777 0.346952 0.0354595 -0.500197 -0.433015 0.0636256 1.19019 2.54719 -0.406398 -0.677077 -0.519752
internal_count=5600 5440 1079 926 232 160 193 71 122 694 403 383 210 173 190 4361 2665 1706 87 1696 61 41 959 938 764 341 82 46 259 236 174 120 97 58 66 120 94 74 44 1619 625 291 144 49 95 599 110 41 489 469 423 322 186 154 124 994 1635 243 108 52 84 147 1392
shrinkage=0.01


Tree=2
num_leaves=64
num_cat=0
split_feature=4 3 1 4 1 2 5 5 4 5 1 2 4 4 4 2 5 5 1 2 5 2 5 2 5 5 6 4 4 4 5 2 2 2 2 5 5 2 5 5 1 5 2 2 3 2 2 2 4 4 4 1 3 2 4 4 4 2 2 4 4 5 4
split_gain=21.0168 9.03346 8.93607 12.6033 13.8137 7.34662 6.96562 6.75626 6.30668 7.01555 11.9812 4.78707 6.54489 6.33579 4.28994 8.03707 4.24077 5.69348 4.01751 5.67846 11.5564 3.47127 4.46402 15.9012 3.43577 8.45482 3.87432 3.51822 3.40473 4.04777 3.20974 3.14244 12.2732 9.66774 6.78103 3.67838 17.9403 4.93231 7.66286 13.4657 7.33167 4.34619 4.3189 3.32747 4.8285 9.48238 3.00555 4.34131 3.96362 4.09804 7.00395 3.39446 9.6532 4.10341 7.69441 8.59819 3.7722 3.91336 4.0114 2.96589 6.73022 2.9603 2.85744
threshold=0.83603006955000014 0.50024987510000007 0.75000000000000011 0.71986999485000014 0.8500000000000002 1.1156556280500001 0.32488458580000007 0.41988086800000007 0.86312783720000008 0.31336875170000006 1.0000000180025095e-35 1.0590384687000001 0.60468214355000016 0.69072216270000009 0.85036453040000015 0.63319620905000007 0.34212570005000004 0.32062435290000008 0.15000000000000005 0.93122901150000004 0.39855990275000003 1.2359206835500001 0.43611918950000006 0.5801400067500001 0.42267004685000004 0.41821045625000003 2.9142135623500005 1.0391410072000002 1.2600013079500003 1.3323724034000002 0.41430661014999998 0.52944538235000016 0.62873876790000016 0.60595992730000015 0.5801400067500001 0.31456317920000004 0.32132537085000007 0.99435904040000012 0.38639349505000004 0.39736630980000004 0.8500000000000002 0.33113433635000006 0.76444413325000016 0.83945664890000005 0.42420513495000006 0.74267250905000004 0.62224387255000013 0.65788482550000016 0.53254612175000016 0.73725395030000007 0.76572360350000013 1.0000000180025095e-35 0.31614868930000006 0.69439718415000018 0.76572360350000013 0.79958059560000005 0.64492615995000013 1.0236271180000003 0.73675807085000011 0.9552383767 0.98672489510000017 0.39064047875000002 0.66335727305000003
decision_type=2 2 2 2 2 2 2 2 2 2 2 2 2 2 2 2 2 2 2 2 2 2 2 2 2 2 2 2 2 2 2 2 2 2 2 2 2 2 2 2 2 2 2 2 2 2 2 2 2 2 2 2 2 2 2 2 2 2 2 2 2 2 2
left_child=2 8 46 4 5 -4 -6 -3 9 -2 -11 -8 -13 62 -12 -16 17 -5 19 -10 -21 22 -9 -24 25 26 -20 -27 -26 -30 31 59 33 34 -33 42 -37 43 41 -40 -41 -39 -34 44 -38 -46 -1 48 -48 61 -51 52 -49 -54 -55 -56 -53 58 -58 -28 -61 -50 -14
right_child=1 7 3 16 6 -7 11 21 18 10 14 12 13 -15 15 -17 -18 -19 24 20 -22 -23 23 -25 28 27 30 -29 29 -31 -32 32 35 -35 -36 36 37 38 39 40 -42 -43 -44 -45 45 -47 47 51 49 50 -52 56 53 54 55 -57 57 -59 -60 60 -62 -63 -64
leaf_value=-0.0053088820588305654 0.028345592126339216 -0.003309250162973381 0.051292624384642292 -0.0041401521156823728 -0.010400028032636881 0.012638054538309091 -0.0044914651914987709 0.038611880817628556 -0.0069671414641196616 0.038695873203676047 -0.005188021072315069 -0.0035231104159268536 0.022785306184529147 0.0038762644873718095 0.030930673081554248 -0.0012223675731670176 -0.0089606783566396619 0.029130896097503897 0.024398536476251419 0.04184321222010115 -0.010410720147143056 0.040938249765820063 0.035024721897072744 -0.010418307688069662 -0.0059624310181276476 0.012944864042314276 -0.010402078149602792 0.042551220446670916 0.025824285092980834 -0.0025682906241196093 -0.01040387775979972 0.025225859230283455 0.015818865284626494 0.048830699541849674 -0.010406262605415478 0.04995242675745537 -0.0039626585779047423 0.015633755661979908 0.045037625499351627 0.027339376693236113 -0.0053082424562304201 -0.0033370386309921579 -0.010398341715045547 -0.010405763292075591 -0.0023606080611175248 0.042574019863491921 0.026003566577596567 0.033147747449192272 -0.0073557727610045207 0.035813293306643498 -0.0017811419301363767 -0.0083425025742152707 0.01330100669364237 -0.010404912074844461 0.028671123594631451 -0.010403338604359203 -0.0065569743812117082 -0.010402198255794717 0.0020526977530747541 0.029761111454619106 -0.0054100448809636624 0.013834504452205281 0.044509729727068806
leaf_count=1379 47 38 30 43 57 23 45 21 235 27 103 39 48 37 31 58 184 20 23 20 25 20 39 40 181 23 77 20 22 34 46 37 20 26 23 21 125 40 33 28 52 150 97 94 33 20 22 24 88 23 31 393 45 145 34 27 210 130 474 20 54 22 24
internal_value=0 0.419525 -0.240806 0.364307 1.06977 3.45396 0.560284 1.58774 0.316871 1.04948 0.658259 1.02483 1.47207 2.11599 0.205475 1.02565 -0.501225 0.657532 0.192547 -0.370256 1.29496 2.16647 1.78118 1.23029 0.313134 0.438228 0.343763 2.68175 -0.250241 0.860623 0.29548 0.35969 0.487798 2.31435 1.16619 0.264507 0.427172 0.252458 0.701947 1.76095 0.614571 0.0713295 -0.578822 -0.254374 0.161532 1.46218 -0.351145 -0.203427 0.541109 0.264358 1.42855 -0.297271 0.220103 -0.0824049 -0.391676 1.14728 -0.416174 -0.215076 -0.0585279 -0.327348 0.414133 -0.309786 3.0062
internal_count=5600 2003 3597 550 303 53 250 158 1845 266 219 193 148 109 192 89 247 63 1579 280 45 120 100 79 1299 1062 1019 43 237 56 996 950 799 86 60 713 596 575 303 113 80 190 117 272 178 53 3047 1668 186 164 54 1482 275 251 206 61 1207 814 684 151 74 110 72
shrinkage=0.01


Tree=3
num_leaves=64
num_cat=0
split_feature=4 1 4 1 3 5 2 5 4 5 6 2 1 2 4 4 5 5 1 2 5 5 5 6 4 4 4 2 5 2 5 2 2 2 2 5 5 2 5 5 1 5 2 1 2 3 2 4 6 4 2 2 4 4 4 1 3 2 4 4 4 2 2
split_gain=20.5569 8.77313 12.2423 12.9102 8.66173 6.79185 6.56877 6.41298 6.09152 6.7036 13.7796 8.30193 5.07043 4.60259 6.22415 5.89922 4.18441 5.41922 3.93154 5.55145 10.8717 3.35017 8.02334 3.69054 3.33605 3.8516 3.19344 3.15827 4.10567 15.0645 3.15647 3.06411 11.6876 8.76761 6.48586 3.60049 16.6835 4.80191 7.33212 12.3806 7.00058 4.3015 4.23469 3.33398 3.29526 4.67698 8.83222 3.1825 5.44225 4.72759 2.97486 4.25221 3.76392 3.96417 6.56331 3.34088 9.16333 3.99029 7.55999 8.19889 3.74768 3.88258 3.95027
threshold=0.83603006955000014 0.75000000000000011 0.71986999485000014 0.8500000000000002 0.50024987510000007 0.32488458580000007 1.1156556280500001 0.41988086800000007 0.86312783720000008 0.35057093385000004 3.6736043311500004 0.49085374470000004 0.55000000000000016 1.0590384687000001 0.60468214355000016 0.69072216270000009 0.34212570005000004 0.32062435290000008 0.15000000000000005 0.93122901150000004 0.39855990275000003 0.42267004685000004 0.41821045625000003 2.9142135623500005 1.2600013079500003 1.3323724034000002 1.0391410072000002 1.2359206835500001 0.43611918950000006 0.5801400067500001 0.41430661014999998 0.52944538235000016 0.62873876790000016 0.60595992730000015 0.5801400067500001 0.31456317920000004 0.32132537085000007 0.99435904040000012 0.38639349505000004 0.39736630980000004 0.8500000000000002 0.37155079795000007 0.76444413325000016 0.75000000000000011 0.83945664890000005 0.42420513495000006 0.74267250905000004 0.91636859495000011 3.5348264453000007 1.0948838537000001 0.62224387255000013 0.65788482550000016 0.53254612175000016 0.73725395030000007 0.76572360350000013 1.0000000180025095e-35 0.31614868930000006 0.69439718415000018 0.76572360350000013 0.79958059560000005 0.64492615995000013 1.0236271180000003 0.73675807085000011
decision_type=2 2 2 2 2 2 2 2 2 2 2 2 2 2 2 2 2 2 2 2 2 2 2 2 2 2 2 2 2 2 2 2 2 2 2 2 2 2 2 2 2 2 2 2 2 2 2 2 2 2 2 2 2 2 2 2 2 2 2 2 2 2 2
left_child=1 50 3 6 8 -5 -3 -6 9 10 12 -11 -2 -7 -15 -16 17 -4 19 -10 -21 22 23 -20 -23 -26 -24 28 -9 -30 31 -25 33 34 -33 42 -37 44 41 -40 -41 43 -34 -39 45 -38 -47 -45 -49 -50 -1 52 -52 -54 -55 56 -53 -58 -59 -60 -57 62 -62
right_child=4 2 16 5 7 13 -8 27 18 11 -12 -13 -14 14 15 -17 -18 -19 21 20 -22 24 26 30 25 -27 -28 -29 29 -31 -32 32 35 -35 -36 36 37 38 39 40 -42 -43 -44 47 -46 46 -48 48 49 -51 51 55 53 54 -56 60 57 58 59 -61 61 -63 -64
leaf_value=-0.0052817457158539473 0.023863090514621738 0.048429291074002817 -0.0041145201490007397 -0.010395888722537975 -0.0032862295154763217 -0.0044650947493488011 0.01236616996844097 0.036888749813077583 -0.0069421898529081075 0.02543751524113223 -0.010419360199074919 -0.0022251833898651657 0.053867837067638577 -0.0034992919668804202 0.028943696482130722 0.0038237571401707709 -0.00894504489885041 0.028073246718740816 0.023615101789428938 0.039854925770400611 -0.010406466651999915 -0.0059355304913371511 0.012662603078106517 -0.0032511912775120269 0.024962361045661702 -0.0025486665126242809 0.040500873952847946 0.039027948180477376 0.033573993725275371 -0.01041397298089785 -0.010399698097972695 0.024397789216600387 0.015433281052903184 0.046215402910190974 -0.010402056973439851 0.04723084308648428 -0.0039374730033183928 -0.010407886890370503 0.042771355164534203 0.02639024013740042 -0.0052810642216917763 -0.010403521991897377 -0.010394221553017278 0.028413187095752974 -0.010401563155504109 -0.0023421178765809995 0.040521691773831046 -0.010410049550864912 0.00049083385506458205 0.032467161909205504 0.025131210673637362 0.031826809328762286 -0.0030759561896453393 0.034299894129106216 -0.0017662442750465501 -0.0083232532943878761 0.013006789594204329 -0.010400721179780567 0.027641350601804515 -0.01039916459725182 -0.0065310067089287436 -0.010398036048523554 0.00202830748052502
leaf_count=1379 53 30 43 57 38 45 23 21 235 36 27 130 20 39 72 37 184 20 23 20 25 181 23 151 22 34 20 20 39 40 46 37 20 26 23 21 125 26 33 28 52 63 97 20 94 33 20 33 24 24 22 24 110 23 31 393 45 145 34 27 210 130 474
internal_value=0 -0.238974 0.359243 1.04827 0.413519 0.551616 3.31131 1.5485 0.312608 1.02869 2.0656 0.391394 3.21391 1.00477 1.43735 2.05394 -0.498553 0.64684 0.190126 -0.36787 1.26612 0.308926 0.431871 0.339047 -0.248345 0.845103 2.58954 2.10176 1.73408 1.20379 0.291536 0.354708 0.480516 2.24212 1.14187 0.261054 0.421032 0.249208 0.690224 1.71465 0.604806 0.0705404 -0.576149 0.608586 -0.252489 0.159565 1.42762 1.0255 0.572634 1.66143 -0.348789 -0.201815 0.532847 0.260946 1.39534 -0.29514 0.217301 -0.0817371 -0.389237 1.12347 -0.413614 -0.21336 -0.0579811
internal_count=5600 3597 550 303 2003 250 53 158 1845 266 100 166 73 193 148 109 247 63 1579 280 45 1299 1062 1019 237 56 43 120 100 79 996 950 799 86 60 713 596 575 303 113 80 190 117 127 272 178 53 101 81 48 3047 1668 186 164 54 1482 275 251 206 61 1207 814 684
shrinkage=0.01


Tree=4
num_leaves=64
num_cat=0
split_feature=4 1 4 1 3 5 5 2 4 5 6 2 2 4 2 4 4 5 5 1 2 5 5 5 6 4 4 5 2 2 2 2 5 5 2 5 5 1 5 2 2 3 2 1 1 2 2 2 4 4 4 1 3 2 4 4 4 2 2 2 5 4 4
split_gain=20.1079 8.61364 11.8953 12.0877 8.31022 6.62457 6.09379 5.90104 5.88492 6.3579 12.9875 7.93479 4.73366 6.4682 4.42783 5.92514 5.50325 4.12911 5.16398 3.84761 5.42881 10.2505 3.26706 7.62209 3.51853 3.26915 3.66856 3.10438 2.98734 11.1405 7.98066 6.20997 3.52432 15.5591 4.67481 7.0216 11.4158 6.69114 4.22929 4.15354 3.26342 4.532 8.24634 3.24928 3.14307 3.64633 2.94433 4.16543 3.5777 3.83599 6.16168 3.28813 8.70991 3.88129 7.42957 7.82779 3.72314 3.85199 3.90281 5.79458 4.04777 3.74132 6.28309
threshold=0.83603006955000014 0.75000000000000011 0.71986999485000014 0.8500000000000002 0.50024987510000007 0.32488458580000007 0.41988086800000007 1.1156556280500001 0.86312783720000008 0.35057093385000004 3.6736043311500004 0.49085374470000004 0.52944538235000016 0.84854244185000016 1.0590384687000001 0.60468214355000016 0.69072216270000009 0.34212570005000004 0.32062435290000008 0.15000000000000005 0.93122901150000004 0.39855990275000003 0.42267004685000004 0.41821045625000003 2.9142135623500005 1.2600013079500003 1.3323724034000002 0.41430661014999998 0.52944538235000016 0.62873876790000016 0.60595992730000015 0.5801400067500001 0.31456317920000004 0.32132537085000007 0.99435904040000012 0.38639349505000004 0.39736630980000004 0.8500000000000002 0.37155079795000007 0.76444413325000016 0.83945664890000005 0.42420513495000006 0.74267250905000004 0.75000000000000011 1.1500000000000001 1.5267408063000001 0.62224387255000013 0.65788482550000016 0.53254612175000016 0.73725395030000007 0.76572360350000013 1.0000000180025095e-35 0.31614868930000006 0.69439718415000018 0.76572360350000013 0.79958059560000005 0.64492615995000013 1.0236271180000003 0.81432478330000013 0.83945664890000005 0.37868190155000009 0.69910657270000021 0.7231988168500002
decision_type=2 2 2 2 2 2 2 2 2 2 2 2 2 2 2 2 2 2 2 2 2 2 2 2 2 2 2 2 2 2 2 2 2 2 2 2 2 2 2 2 2 2 2 2 2 2 2 2 2 2 2 2 2 2 2 2 2 2 2 2 2 2 2
left_child=1 46 3 7 8 -5 -6 -3 9 10 12 -11 -2 -14 -7 -16 -17 18 -4 20 -10 -22 23 24 -21 -24 -27 28 -26 30 31 -30 39 -34 40 38 -37 -38 43 -31 41 -35 -43 -36 -45 -46 -1 48 -48 -50 -51 52 -49 -54 -55 -56 -53 58 -58 60 -60 -61 -63
right_child=4 2 17 5 6 14 -8 -9 19 11 -12 -13 13 -15 15 16 -18 -19 -20 22 21 -23 25 -25 27 26 -28 -29 29 32 -32 -33 33 34 35 36 37 -39 -40 -41 -42 42 -44 44 45 -47 47 51 49 50 -52 56 53 54 55 -57 57 -59 59 61 -62 62 -64
leaf_value=-0.0052546263857752374 0.011819310247785899 0.045855764296947668 -0.0040889546233988548 -0.010391794407077656 -0.0032633022286611408 -0.0044387770192406218 0.020404003637650849 0.012103323184370686 -0.0069171920112301886 0.024598900100947035 -0.010415013764348112 -0.0022074775031251672 0.056687294170618595 0.02073729012300848 -0.0034755604975935696 0.027899242610541455 0.003772148046495255 -0.0089293630406698781 0.027082168107699381 0.022874406799694651 0.038035826497987237 -0.010402258815600678 -0.0059086192471273467 0.025028559412279543 -0.0032284017937414429 0.024149644243022989 -0.00252914626226244 -0.010395562960459671 0.023616092464262741 0.015062748239287466 0.043853611870549314 -0.010397896987650269 0.044778078802565451 -0.0039123608678425835 -0.010403664254981189 0.040710329368007836 0.025497835845360885 -0.0052539041425207489 -0.010399345829494363 -0.010390144705338271 -0.010397408012816554 -0.0023237336989855115 0.038646680414690091 0.0208238399622451 -0.010417999583875662 0.014739316220879499 0.024308946272555625 0.030598329582368914 -0.0030538949810027631 0.032899561176770148 -0.0017514471286077977 -0.0083039419698965732 0.012722712271072467 -0.010396575113837939 0.026675579568503641 -0.010395035097472534 -0.0040600337999560756 -0.010393918799478151 0.0068540059498949984 -0.010405724497585016 0.035357790406303831 0.021935233367117064 -0.00097594126098213458
leaf_count=1379 23 30 43 57 38 45 120 23 235 36 27 130 26 24 39 72 37 184 20 23 20 25 181 43 151 22 34 46 37 20 26 23 21 125 26 33 28 52 63 97 94 33 20 41 29 31 22 24 110 23 31 393 45 145 34 27 384 130 31 63 23 41 142
internal_value=0 -0.23715 0.354294 1.02749 0.407631 0.543166 1.5109 3.1792 0.30842 1.0085 2.00573 0.386003 3.08851 3.9434 0.985349 1.40401 1.99504 -0.495888 0.636405 0.187745 -0.365494 1.23838 0.304794 0.425643 0.334418 -0.24646 0.830006 0.287661 0.349819 0.473366 2.17382 1.11836 0.257635 0.414982 0.245977 0.6787 1.67042 0.59527 0.0696482 -0.57348 -0.250614 0.157633 1.39444 0.598892 1.00539 0.25848 -0.346442 -0.200212 0.524796 0.25762 1.3634 -0.29302 0.214549 -0.0810733 -0.386809 1.10046 -0.411061 -0.211655 -0.057439 0.38274 1.91085 0.0454103 0.419535
internal_count=5600 3597 550 303 2003 250 158 53 1845 266 100 166 73 50 193 148 109 247 63 1579 280 45 1299 1062 1019 237 56 996 950 799 86 60 713 596 575 303 113 80 190 117 272 178 53 127 101 60 3047 1668 186 164 54 1482 275 251 206 61 1207 814 684 300 54 246 183
shrinkage=0.01


Tree=5
num_leaves=64
num_cat=0
split_feature=4 2 2 3 2 2 5 5 4 4 2 2 0 5 5 0 2 5 3 2 0 5 4 2 2 0 5 2 5 5 4 5 5 4 2 4 4 4 5 4 2 2 5 2 2 2 2 2 4 3 5 4 4 5 5 6 5 4 4 2 2 2 4
split_gain=16.0086 7.81314 5.59104 4.72042 5.25702 6.12229 4.32643 10.9419 4.04944 4.26851 6.40543 3.79279 7.50188 4.63292 5.91735 21.4446 3.97863 9.02065 7.26759 3.72883 6.31664 15.9456 9.59288 5.22887 5.20654 4.80276 11.853 4.69636 6.18293 4.258 7.69934 3.50484 8.08826 9.07504 7.66073 4.80287 3.44303 15.9175 3.32922 5.56726 2.79651 15.2881 15.1163 5.50319 4.50584 4.40436 5.70384 10.0595 4.76603 5.20725 4.67305 4.19242 5.43612 3.2677 6.12335 2.75417 12.1882 7.99935 3.93843 11.6233 3.84887 4.38152 6.11601
threshold=0.83603006955000014 0.62224387255000013 0.66214608985000012 0.50024987510000007 1.3880066597000003 1.0792068749500001 0.52052857530000007 0.47958201910000003 0.54996243265000011 0.62515287250000007 0.65598204490000012 0.81432478330000013 1.0000000180025095e-35 0.32488458580000007 0.34212570005000004 0.8500000000000002 0.85165278510000009 0.37396494620000009 0.39774355654999999 0.83684673930000009 0.65000000000000002 0.31456317920000004 0.9552383767 0.58922612780000005 0.37624769440000005 0.35000000000000003 0.35902643440000009 0.87696206770000007 0.38203402430000005 0.42731719640000004 1.0391410072000002 0.34734708120000007 0.39855990275000003 0.87507195690000017 0.70422826610000011 0.9839386817500001 0.86312783720000008 0.85036453040000015 0.39064047875000002 0.7516373232000001 1.3351029102000003 1.2682418873500001 0.38639349505000004 1.5267408063000001 1.6573696362500001 1.2148816202000001 1.1468707344000002 1.1688669422000004 0.96731181240000008 0.42373340265000009 0.37094471535000006 0.9070886921500001 1.0798635640500003 0.37669614065000007 0.34734708120000007 3.2394512253000003 0.39255570785000005 0.79729008995000006 0.72123201240000012 1.2506248375500002 0.94124251520000013 0.96063128905000017 0.70932396370000006
decision_type=2 2 2 2 2 2 2 2 2 2 2 2 2 2 2 2 2 2 2 2 2 2 2 2 2 2 2 2 2 2 2 2 2 2 2 2 2 2 2 2 2 2 2 2 2 2 2 2 2 2 2 2 2 2 2 2 2 2 2 2 2 2 2
left_child=1 -1 8 19 5 6 7 -5 -3 -10 38 12 -4 -13 15 -15 17 -16 -19 20 23 22 -22 29 -23 26 -21 28 -27 36 -31 -26 33 -33 35 -35 37 -2 39 -11 41 45 -43 -42 51 46 48 -48 53 -50 -51 -45 -53 54 -29 60 58 -58 59 -57 -18 -62 -63
right_child=3 2 11 4 -6 -7 -8 -9 9 10 -12 13 -14 14 16 -17 55 18 -20 25 21 24 -24 -25 31 27 -28 40 -30 30 -32 32 -34 34 -36 -37 -38 -39 -40 -41 43 42 -44 44 -46 -47 47 -49 49 50 -52 52 -54 -55 -56 56 57 -59 -60 -61 61 62 -64
leaf_value=-0.0054257215457103238 -0.010418144300205181 0.024855499155633145 0.018201427258798985 0.004520137569970703 -0.010437587943416964 0.037107915705822794 -0.003683939845224853 0.046969566642804682 -0.010400067127747039 -0.010406157765803108 0.027978320200833306 -0.0055424216502826078 -0.0056019038124867759 -0.010415378971389975 -0.0050690807270049043 0.047265442761111214 -0.010403259444050636 0.041719077542210686 0.0022927013037619547 0.048421168313593797 0.045692708367767114 0.02545277329699009 0.0022370552512428273 -0.010403279410436783 -0.010414428690256161 0.041014162605237311 -0.0013157618208912017 -0.0053697095290835333 0.0052525935230640875 -0.010403486991692494 0.028906918140995219 -0.010406911169616791 -0.0064843313491043785 0.044089466184120754 0.0026064299562789696 0.013351438634481065 -0.0045238733065131233 0.040060872339574401 0.018579788063714981 0.016724825699105026 -0.010406825796110717 0.0061577167934436785 0.058525653083730193 0.030994911204150332 -0.0025600001806710803 -0.010413658497251749 0.044343784024552316 -0.00095971937170298831 0.025176664554625409 0.022373792054977353 -0.0035388690442780743 -0.010407576410164298 0.023526833590557739 -0.010405654370101481 0.027551479527658965 -0.0027813898856894315 0.044470298710359464 0.0024873257548894117 -0.0065720535865375343 0.041349114913680075 0.020565218887431992 0.0033060103628063031 -0.01039789826612887
leaf_count=1378 44 29 37 51 23 26 36 21 41 64 35 280 679 36 50 31 125 30 21 21 35 22 20 178 71 20 29 52 35 22 34 37 136 33 40 22 278 24 27 29 104 31 26 25 100 63 24 28 37 24 76 27 23 97 21 70 29 21 142 20 26 249 135
internal_value=0 -0.232243 -0.0421707 0.342027 1.16955 1.54512 1.02226 1.73659 0.726397 0.455175 0.843405 -0.130728 -0.434206 0.0389425 0.204256 1.66235 0.0944188 1.05771 2.57017 0.26758 0.0522291 0.530597 3.02017 -0.299838 0.127791 0.513893 2.03647 0.417698 1.87792 0.0270003 1.35074 -0.02957 0.239981 1.13721 1.9626 3.19209 -0.187598 0.820522 0.281986 -0.183826 0.31342 0.550919 3.00924 -0.0956118 0.455045 0.20945 0.429647 2.00258 0.16296 0.871304 0.266279 1.40346 0.540046 -0.41577 0.401616 -0.0257868 0.389365 2.70424 -0.112478 0.726044 -0.242959 -0.00228576 -0.140425
internal_count=5600 3584 2206 2016 157 134 108 72 225 196 155 1981 716 1265 985 67 918 101 51 1859 996 416 55 580 361 863 50 813 55 402 56 339 268 132 95 55 346 68 120 93 758 479 57 279 175 422 359 52 307 137 100 75 50 170 73 817 282 50 232 90 535 410 384
shrinkage=0.01


Tree=6
num_leaves=64
num_cat=0
split_feature=4 2 2 1 4 4 6 1 1 4 4 4 4 4 4 4 4 2 2 2 3 2 3 6 2 6 3 2 4 0 4 4 2 4 2 2 4 6 2 1 2 2 2 2 2 2 2 0 2 4 2 3 4 2 0 6 4 0 4 4 2 2 0
split_gain=15.6702 7.71378 5.45048 4.70317 6.91436 6.3878 6.29904 4.68511 7.26651 7.21893 8.76358 7.33081 10.5241 4.49277 11.6927 5.53881 4.91958 4.31533 4.0608 15.6725 19.1604 4.29039 5.13256 4.01469 4.58033 13.3115 11.3937 6.6307 8.83308 3.84475 3.83681 4.17311 6.05325 3.77722 3.9087 5.71386 3.76912 20.4867 3.54591 3.19698 3.68828 11.6556 6.80367 5.77739 5.44011 7.65878 11.0737 8.83292 7.13448 9.90341 5.6722 3.64829 6.98882 3.12585 5.13446 3.12451 2.98933 2.80132 3.09883 8.05842 2.73295 2.72914 2.52412
threshold=0.83603006955000014 0.62224387255000013 0.66214608985000012 0.45000000000000007 1.0180422966500002 0.8426863896500002 2.7370892179000008 0.75000000000000011 1.0000000180025095e-35 0.7597846438000001 0.74906553345000015 0.71986999485000014 0.70809224455000008 0.76572360350000013 0.80340828520000007 0.78459660870000014 0.55447093105000012 0.46165413655000004 1.1688669422000004 1.0538619037000003 0.37067024925000008 1.3880066597000003 0.39081660885000008 3.0811388301000004 0.47003977440000005 3.5348264453000007 0.46893495140000002 0.89564918890000011 1.2411525520500002 0.15000000000000005 0.54996243265000011 0.62515287250000007 0.65598204490000012 0.64492615995000013 0.73675807085000011 1.0295629693500004 0.66863002615000011 2.9142135623500005 0.69439718415000018 1.5500000000000003 0.81432478330000013 0.87696206770000007 0.96063128905000017 0.84317107735000019 1.1688669422000004 1.2682418873500001 1.3351029102000003 0.8500000000000002 1.1468707344000002 1.2411525520500002 1.5267408063000001 0.42420513495000006 1.1051485296500003 1.0747092236500002 0.8500000000000002 3.0811388301000004 0.73573696605000005 0.55000000000000016 0.68907501285000017 0.70060481405000019 0.72045988990000021 1.5789630690000003 0.65000000000000002
decision_type=2 2 2 2 2 2 2 2 2 2 2 2 2 2 2 2 2 2 2 2 2 2 2 2 2 2 2 2 2 2 2 2 2 2 2 2 2 2 2 2 2 2 2 2 2 2 2 2 2 2 2 2 2 2 2 2 2 2 2 2 2 2 2
left_child=1 -1 30 4 -2 -5 -7 8 13 10 11 12 18 16 15 -15 -4 -8 19 -9 -21 -20 -23 -6 25 26 -25 60 -29 -27 -3 -32 55 -10 -35 36 37 -36 -18 40 -19 43 -43 -42 48 -46 47 -47 49 53 -48 61 -53 54 -44 -33 -40 -38 -59 -60 62 -52 -26
right_child=3 2 7 5 23 6 17 9 33 -11 -12 -13 -14 14 -16 -17 38 39 21 20 -22 22 -24 24 27 29 -28 28 -30 -31 31 32 -34 34 35 -37 57 -39 56 -41 41 42 44 -45 45 46 50 -49 -50 -51 51 52 -54 -55 -56 -57 -58 58 59 -61 -62 -63 -64
leaf_value=-0.0053986059794769257 -0.0017819275557113363 0.02404943354969449 0.022611124630420542 0.031695297443778005 -0.010440004933550328 0.030363639062985563 0.027807149655088362 -0.0055483270823699238 -0.0089194428706415602 -0.006780756942016004 0.038473393153633337 -0.010397524280642747 0.039147748104813078 0.014354294882870504 -0.01039256056221554 0.051389474543309117 0.01216198773992587 -0.004657754950898374 -0.010416327471401825 0.0012706074143442817 0.067386258578392699 0.015631121453795777 -0.010423339503390434 0.01129745241091386 -0.0051478250487664336 -0.010418264257507675 0.060133584941896981 0.041585582629864899 -0.00064284068598209436 0.0124836633207228 -0.01039592839837929 0.013730877376243266 0.02699008087540836 -0.0090121442734420083 0.055936610861641915 -0.010389567900486969 -0.010402671652280085 -0.010399182623076082 -0.010396159330340311 -0.0065653602908144542 0.013555358404619428 -0.010400762029270524 -0.0035838951981118001 0.051001120389855457 -0.010411717958591114 0.043632963083196988 -0.0076496721423458397 0.0017272696928224761 0.037540098885352625 0.033254122088120404 0.012871803506759682 0.0366633692222594 0.0030588671367528003 -0.0059150414545149138 0.022706745850299345 -0.0034933900172729872 0.0086658043720425244 -0.01040562110775094 0.02678124670770269 0.00090756205920222786 -0.010402170950141246 -0.010413600033625856 0.010247015596510943
leaf_count=1378 735 29 23 24 31 25 20 53 376 149 22 70 26 20 28 20 34 91 62 22 22 60 29 25 51 33 24 25 26 46 41 44 35 199 20 132 57 33 104 68 22 73 38 21 89 32 97 21 26 35 22 28 38 58 39 76 29 48 36 307 57 32 64
internal_value=0 -0.230463 -0.0418452 0.337341 0.114309 0.611662 0.539217 -0.129644 -0.281326 0.290175 0.671983 0.474916 0.841952 0.501476 1.61723 3.2895 0.0874074 0.46397 0.519283 1.32197 3.51626 -0.00738773 0.707838 0.671837 0.832207 1.59839 3.66068 0.384167 1.98288 0.287353 0.71412 0.448562 0.828275 -0.45308 -0.258891 -0.060844 0.187897 1.49572 -0.231693 0.406731 0.50141 0.632182 0.455792 3.20459 0.644996 0.269148 0.694821 2.73495 1.32326 0.937515 0.171103 0.905855 1.70825 0.305946 0.97664 0.27833 -0.627678 0.0339748 0.189641 0.361799 -0.108446 -0.0782085 0.347268
internal_count=5600 3584 2206 2016 1117 899 875 1981 1466 515 366 344 274 258 68 40 190 850 248 97 44 151 89 382 351 128 49 223 51 79 225 196 155 1208 832 633 501 53 167 830 762 671 628 43 555 359 270 53 196 170 217 120 66 135 77 120 133 448 391 343 172 54 115
shrinkage=0.01


Tree=7
num_leaves=64
num_cat=0
split_feature=4 2 2 1 1 4 4 4 4 5 1 4 4 6 4 4 4 4 2 2 2 3 2 6 5 2 2 5 4 2 2 4 4 2 1 5 5 4 6 5 1 1 2 2 2 5 2 2 2 5 2 4 5 2 3 4 2 5 4 4 6 5 1
split_gain=15.3429 7.61443 5.31508 4.59482 7.13545 7.05354 8.1999 7.1644 9.82325 6.22085 4.5618 6.73498 6.01604 5.94758 4.31206 11.0583 4.95424 4.72843 4.19742 24.8543 4.43295 7.92242 4.08932 3.91732 7.85515 16.0519 8.46438 4.63479 3.7571 3.87402 5.64718 3.63877 4.081 5.76109 3.64289 3.63489 5.69578 3.63172 18.9858 3.59122 3.14915 3.12506 3.59112 10.9757 6.6634 5.86577 5.22196 7.51032 10.4957 15.8422 6.61455 9.30446 5.791 5.54224 3.49189 6.49736 2.92768 2.9042 2.94609 6.49873 3.96146 6.75891 6.54321
threshold=0.83603006955000014 0.62224387255000013 0.66214608985000012 0.75000000000000011 1.0000000180025095e-35 0.7597846438000001 0.74906553345000015 0.71986999485000014 0.70809224455000008 0.32488458580000007 0.45000000000000007 1.0180422966500002 0.8426863896500002 2.7370892179000008 0.76572360350000013 0.80340828520000007 0.78459660870000014 0.55447093105000012 1.1468707344000002 1.0538619037000003 1.3880066597000003 0.39081660885000008 0.46165413655000004 3.0811388301000004 0.47958201910000003 0.58922612780000005 0.89564918890000011 0.32449946845000005 0.64492615995000013 0.73675807085000011 1.0295629693500004 0.54996243265000011 0.62515287250000007 0.65311748010000004 0.25000000000000006 0.40155941665 0.39843443130000006 0.66863002615000011 2.9142135623500005 0.39255570785000005 0.35000000000000003 1.5500000000000003 0.81432478330000013 0.87696206770000007 0.96063128905000017 0.38151015155000007 1.1688669422000004 1.2682418873500001 1.3351029102000003 0.38639349505000004 1.1468707344000002 1.2411525520500002 0.3241141682 1.5267408063000001 0.42420513495000006 1.1051485296500003 0.69439718415000018 0.40199494785000006 0.68907501285000017 0.70060481405000019 2.7370892179000008 0.39357335260000004 0.55000000000000016
decision_type=2 2 2 2 2 2 2 2 2 2 2 2 2 2 2 2 2 2 2 2 2 2 2 2 2 2 2 2 2 2 2 2 2 2 2 2 2 2 2 2 2 2 2 2 2 2 2 2 2 2 2 2 2 2 2 2 2 2 2 2 2 2 2
left_child=1 -1 31 4 14 6 7 8 9 -5 11 35 -12 -14 17 16 -16 -4 19 -11 -20 -22 -15 -13 26 -26 27 -25 -6 -30 37 -3 -33 -34 -35 36 40 38 -31 56 -2 42 -24 45 -45 -44 50 -48 49 -49 51 52 -46 -50 -55 -56 -19 58 -39 -60 -61 62 -62
right_child=10 2 3 5 28 -7 -8 -9 -10 18 12 23 13 22 15 -17 -18 39 20 -21 21 -23 41 24 25 -27 -28 -29 29 30 -32 32 33 34 -36 -37 -38 57 -40 -41 -42 -43 43 44 46 -47 47 48 53 -51 -52 -53 -54 54 55 -57 -58 -59 59 60 61 -63 -64
leaf_value=-0.0053715017903515896 0.00080308632792185563 0.023287914612057523 0.021923698260306882 -0.010394740220616473 -0.0089037860884083695 -0.0067553040791338229 0.036756284926157373 -0.010393412882359343 0.037382303463313921 -0.0044345319647581781 0.030476508186622078 -0.010435436519262702 0.029230610549616901 0.026832631998162493 0.014024366866156436 -0.010388502258195195 0.048531495914631309 0.0083865259417432638 -0.0061638958653089902 0.058243690674998669 0.026041114175568873 -0.010424494125095152 -0.0046310856458597824 0.017805407866289608 0.045360703591939479 -0.010417529837449953 0.025542148163824305 -0.0017887773892340101 -0.0089970609430975595 0.052587755923213839 -0.010385541458271728 -0.010391833826085399 0.0016598402961938558 0.010099054639604975 0.038765859409955125 -0.0077281588907862622 0.020851801991823279 -0.010401474948799118 -0.010395052895950834 0.012322380664520818 -0.010420176025987242 -0.0065392966094139039 0.049811661401589484 -0.010396615952675379 0.028212339257535617 0.012626824974022651 -0.010407454934323452 -0.0010661585334627776 -0.0076270539497758751 0.052967546938975957 0.035904431214024188 0.031928443357436283 -0.0013942127362728473 -0.00077540092149094354 0.035087571645174828 0.0030197443845916493 -0.010394000051555561 -0.010401827805434232 0.023264626108080159 0.020258454432965346 -0.0076833042134191289 0.027169079999727775 0.011801130153821478
leaf_count=1378 423 29 23 56 376 149 22 70 26 43 24 31 25 20 20 28 20 27 60 24 41 24 91 38 33 21 42 217 199 20 132 41 109 25 21 201 34 46 33 36 77 68 20 73 20 23 89 27 97 26 26 35 115 54 28 38 104 59 39 26 197 21 60
internal_value=0 -0.22871 -0.0415539 -0.128606 -0.279307 0.28627 0.66078 0.467802 0.82667 0.511316 0.332785 0.11297 0.601898 0.53095 0.493967 1.5768 3.15909 0.0863859 0.92687 1.93193 0.378304 1.28319 0.457156 0.660736 0.817288 2.52733 0.475682 0.112343 -0.450477 -0.256978 -0.0603527 0.702191 0.442125 0.813613 2.31393 -0.176702 0.0429248 0.185585 1.45936 -0.229912 -0.0945393 0.400953 0.493879 0.621957 0.449129 3.07961 0.634516 0.265611 0.68322 2.63983 1.29384 0.919927 0.301941 0.169003 0.889088 1.66436 -0.627886 0.0335848 0.194984 0.358715 0.101959 -0.0790084 -0.311453
internal_count=5600 3584 2206 1981 1466 515 366 344 274 248 2016 1117 899 875 258 68 40 190 192 67 125 65 850 382 351 54 297 255 1208 832 633 225 196 155 46 735 534 501 53 167 500 830 762 671 628 43 555 359 270 53 196 170 135 217 120 66 131 448 389 343 304 278 257
shrinkage=0.01


Tree=8
num_leaves=64
num_cat=0
split_feature=4 2 2 1 1 4 4 4 4 1 4 0 2 2 1 1 2 2 3 2 2 4 4 4 4 6 2 6 3 2 4 2 3 2 3 4 4 2 2 0 2 2 4 4 0 1 4 4 6 4 4 2 0 0 2 1 2 2 1 4 0 4 4
split_gain=15.0236 7.51583 5.18374 4.50663 7.00733 6.89309 7.68716 7.00356 9.18754 4.42555 6.56254 6.20539 5.43918 7.15221 10.0979 7.25324 9.3927 11.9455 4.67922 6.00788 12.3604 4.14116 10.4763 4.54773 4.45211 3.82371 4.23495 12.1487 9.53847 6.12386 7.90402 3.79809 14.1472 4.1554 4.82211 3.8605 3.73668 3.83929 5.58107 3.71248 3.71062 3.54004 4.51443 3.85066 3.50861 4.46109 4.81744 3.50153 17.6599 3.45424 3.99172 5.47549 3.83446 6.65768 3.40117 3.33921 3.25982 3.62557 7.1709 2.95565 2.76802 3.01403 7.36094
threshold=0.83603006955000014 0.62224387255000013 0.66214608985000012 0.75000000000000011 1.0000000180025095e-35 0.7597846438000001 0.74906553345000015 0.71986999485000014 0.70809224455000008 0.45000000000000007 1.0180422966500002 0.25000000000000006 1.3351029102000003 1.2856175042000002 1.0500000000000003 1.2500000000000002 1.1688669422000004 1.1468707344000002 0.52428824425000009 0.87696206770000007 0.83684673930000009 0.76572360350000013 0.80340828520000007 0.55447093105000012 0.78459660870000014 3.0811388301000004 0.47003977440000005 3.5348264453000007 0.46893495140000002 0.89564918890000011 1.2411525520500002 1.1688669422000004 0.39981245115000003 1.3880066597000003 0.39081660885000008 0.63511240605000008 0.64492615995000013 0.73675807085000011 1.0295629693500004 0.15000000000000005 1.5267408063000001 1.6573696362500001 0.9070886921500001 1.0798635640500003 0.65000000000000002 0.65000000000000002 0.93297046215000001 0.66863002615000011 2.9142135623500005 0.54996243265000011 0.62515287250000007 0.65311748010000004 0.65000000000000002 0.8500000000000002 0.69439718415000018 0.25000000000000006 0.96063128905000017 1.0747092236500002 0.75000000000000011 0.73573696605000005 0.55000000000000016 0.68907501285000017 0.70060481405000019
decision_type=2 2 2 2 2 2 2 2 2 2 2 2 2 2 2 2 2 2 2 2 2 2 2 2 2 2 2 2 2 2 2 2 2 2 2 2 2 2 2 2 2 2 2 2 2 2 2 2 2 2 2 2 2 2 2 2 2 2 2 2 2 2 2
left_child=1 -1 49 4 21 6 7 8 31 10 -2 -11 13 15 -15 16 17 18 19 20 44 23 24 -4 -23 -12 27 28 -27 -28 -31 32 35 -33 -35 -5 -6 -38 47 -29 -14 42 -42 -44 -13 46 -46 48 -39 -3 -51 52 -52 -54 -25 -53 -21 58 -58 -56 -49 -62 -63
right_child=9 2 3 5 36 -7 -8 -9 -10 11 25 12 40 14 -16 -17 -18 -19 -20 56 -22 22 -24 54 -26 26 29 39 -30 30 -32 33 -34 34 -36 -37 37 38 -40 -41 41 -43 43 -45 45 -47 -48 60 -50 50 51 55 53 -55 59 -57 57 -59 -60 -61 61 62 -64
leaf_value=-0.0053444105518886485 -0.0017523927742011641 0.022567337210674245 0.02127147722923323 0.013317006280826079 -0.0088880785756550069 -0.0067298105879013874 0.035175446359362643 -0.010389345251193137 0.035758777293390186 0.030893445243247327 -0.010430917737142664 -0.01041113378907107 -0.0079984740323066662 0.047737098925072628 0.0012506158520452623 0.0297392988853101 -0.010410323709073046 0.042510715462339553 0.025650263840142257 -0.010393937296161955 0.041443647989090664 0.013706405301009755 -0.010384487438378479 0.011714206632177416 0.045962370072858597 0.011007790537717069 -0.0010849030500615507 -0.010419182952982888 0.054708429796119652 0.038452866496399389 -0.00076099515512054422 -0.010409174262161314 0.042392320232689712 0.014887602792244572 -0.010414609722934157 -0.010431374967743415 -0.0089819296375311369 0.049603918601376147 -0.010381558474643645 0.011980197172537765 0.029233150151276456 -0.0025446700879256622 -0.010413970418818693 0.016419518048661076 0.018280152919476642 0.026768283430850939 -0.010413863705558319 -0.010399078187628193 -0.01039096763303653 -0.010387783075791716 -0.01040727665818309 0.0099053164890318905 0.029255687392216748 -0.0038613087051276324 -0.010389541151786781 0.037030353909186263 -0.0013589163740614142 -0.0063089756138412657 0.028321213416666026 0.0085539861091976643 -0.010397269188361345 0.025147591229862886 0.00090439040435973724
leaf_count=1378 735 29 23 32 376 149 22 70 26 24 31 30 112 24 21 31 89 22 27 71 28 20 28 34 20 25 172 33 24 25 26 62 27 60 29 38 199 20 132 46 25 99 27 28 27 27 35 57 33 41 43 25 26 40 104 21 57 63 32 29 48 36 307
internal_value=0 -0.226974 -0.0412709 -0.127584 -0.27731 0.282443 0.649873 0.460853 0.811834 0.328316 0.111655 0.592367 0.521088 0.80093 2.6662 0.632606 0.484341 0.797705 0.585507 0.431588 1.22229 0.486627 1.53811 0.0853782 3.03791 0.649987 0.80287 1.52741 3.43763 0.371466 1.8739 0.503535 1.26785 -0.00877724 0.684502 0.0446871 -0.447893 -0.255095 -0.0598926 0.269656 -0.0523044 0.394171 1.17826 0.357309 0.485239 0.9868 0.221583 0.183269 1.42458 0.690548 0.435811 0.799325 0.164072 0.931382 -0.228142 2.24213 -0.101629 0.306827 0.95901 -0.622736 0.0331549 0.18703 0.354605
internal_count=5600 3584 2206 1981 1466 515 366 344 274 2016 1117 899 875 584 45 539 508 419 397 370 147 258 68 190 40 382 351 128 49 223 51 248 97 151 89 70 1208 832 633 79 291 179 80 55 119 89 62 501 53 225 196 155 109 66 167 46 223 152 89 133 448 391 343
shrinkage=0.01


Tree=9
num_leaves=64
num_cat=0
split_feature=4 2 2 1 1 4 4 4 6 2 2 1 4 0 2 2 5 1 2 2 5 5 4 1 6 5 4 4 4 4 6 5 2 2 5 4 2 2 2 5 5 5 2 4 4 4 6 4 4 2 1 0 5 5 4 4 0 5 5 4 5 5 5
split_gain=14.7112 7.41858 5.05517 4.42072 6.8817 6.73792 7.21894 6.84854 8.76238 7.61431 10.5111 4.29389 6.39451 5.85094 5.26662 6.74846 15.3409 6.84607 9.18402 11.1179 10.7195 14.4119 5.26331 4.37341 5.71737 13.6006 3.97933 9.941 4.37671 4.01794 3.73311 7.22119 14.3452 7.72929 4.43779 3.71639 3.80503 5.51628 3.65185 3.59837 5.4868 3.50346 3.42681 4.24637 3.74118 3.37758 16.4811 3.28232 3.90471 5.21778 3.12192 3.3646 10.5485 4.20614 6.08583 5.31367 3.78828 3.67197 3.11575 5.40782 3.03059 3.02497 2.8651
threshold=0.83603006955000014 0.62224387255000013 0.66214608985000012 0.75000000000000011 1.0000000180025095e-35 0.7597846438000001 0.74906553345000015 0.71986999485000014 3.2394512253000003 1.1688669422000004 1.0538619037000003 0.45000000000000007 1.0180422966500002 0.25000000000000006 1.3351029102000003 1.2856175042000002 0.39843443130000006 1.2500000000000002 1.1688669422000004 1.1468707344000002 0.3256531807000001 0.31224887340000002 0.91636859495000011 0.95000000000000007 3.2394512253000003 0.41821045625000003 0.76572360350000013 0.80340828520000007 0.55447093105000012 0.78459660870000014 3.0811388301000004 0.47958201910000003 0.58922612780000005 0.89564918890000011 0.32449946845000005 0.64492615995000013 0.73675807085000011 1.0295629693500004 1.5267408063000001 0.40155941665 0.39843443130000006 0.39255570785000005 1.6573696362500001 0.9070886921500001 1.0798635640500003 0.66863002615000011 2.9142135623500005 0.54996243265000011 0.62515287250000007 0.65598204490000012 0.35000000000000003 0.65000000000000002 0.29213808610000003 0.33060547050000005 0.86312783720000008 0.84551043550000016 0.25000000000000006 0.37449966025000009 0.39064047875000002 0.7516373232000001 0.38431748895000001 0.38865150955000011 0.40199494785000006
decision_type=2 2 2 2 2 2 2 2 2 2 2 2 2 2 2 2 2 2 2 2 2 2 2 2 2 2 2 2 2 2 2 2 2 2 2 2 2 2 2 2 2 2 2 2 2 2 2 2 2 2 2 2 2 2 2 2 2 2 2 2 2 2 2
left_child=1 -1 47 4 26 6 7 8 9 10 61 12 39 -13 15 17 -17 18 19 20 21 -15 -22 24 25 -24 28 29 -4 -28 -14 33 -33 34 -32 -6 -37 45 -16 40 50 -30 43 -40 -45 46 -38 -3 -49 58 51 53 -53 -2 55 -55 -56 -54 59 -50 -59 -5 -47
right_child=11 2 3 5 35 -7 -8 -9 -10 -11 -12 13 30 14 38 16 -18 -19 -20 -21 22 -23 23 -25 -26 -27 27 -29 41 -31 31 32 -34 -35 -36 36 37 -39 42 -41 -42 -43 -44 44 -46 62 -48 48 49 -51 -52 52 57 54 56 -57 -58 60 -60 -61 -62 -63 -64
leaf_value=-0.005317333005617199 -0.010405168849375358 0.021884482742589102 0.020651825808658483 -0.010423772548251661 -0.0088723190767455856 -0.0067042769681834417 0.033715161514368229 -0.010385321436399607 0.03082223730791122 -0.0031437466915521899 0.03220040506212006 0.029728940464421802 -0.010426447231301497 0.0072486798497020935 -0.0079774397968121191 -0.00071237578068701754 0.05575406037846637 0.028648329211880662 -0.010406076549498097 0.040484567274375438 -0.0078004417650780113 0.056935593129925986 -0.010418529344927636 0.024434842599971671 -0.00081729347484182783 0.047421456103296865 0.013399777653136269 -0.010380515673007889 -0.0062411864911779422 0.043639998910816893 0.017194324819309229 0.041912455394466683 -0.010412816085916085 0.023962307979068259 -0.0018021181511884471 -0.0089667498110365812 0.046927926800454475 -0.01037761811294402 0.028173859612010944 -0.0077008410394742996 0.020299091195617236 0.012068798651948508 -0.0025251543693657671 -0.010409683301307213 0.016011534101778257 0.0019207293870920265 -0.010386926287847946 -0.010383775861945489 -0.01040550716939014 0.024537978229070331 -0.010415095209924199 0.034650167294734732 -0.0068639639782267711 0.0011194324669518262 0.0090367250880322731 0.03622862135760261 -0.010397879337972045 0.025315525244564561 0.017597994288059225 0.016151844767858147 -0.00044083518410129469 0.014520909599814325 -0.010397679450719486
leaf_count=1378 111 29 23 32 376 149 22 70 36 143 43 24 31 44 112 25 20 31 89 22 101 20 20 29 162 21 20 28 131 20 38 33 21 42 217 199 20 132 25 201 34 36 99 27 28 389 33 41 64 35 77 27 73 23 42 21 78 22 27 29 26 20 59
internal_value=0 -0.225241 -0.0409753 -0.126549 -0.275313 0.27873 0.639302 0.454117 0.797492 0.444441 1.51091 0.323927 0.110363 0.583045 0.51321 0.786829 2.57533 0.622416 0.477158 0.783708 0.57634 2.43346 0.202531 0.619258 0.353647 2.02039 0.479453 1.50106 0.0843861 2.925 0.639456 0.788788 2.39455 0.459328 0.106992 -0.445306 -0.253202 -0.0594034 -0.0518697 -0.173769 0.0442801 -0.226383 0.388717 1.15369 0.352475 0.181037 1.39128 0.67911 0.429539 0.785289 -0.0920801 0.0813286 0.692958 -0.261764 0.264058 1.85679 -0.359104 0.0325411 0.265702 -0.188681 1.13014 -0.0613336 0.0327765
internal_count=5600 3584 2206 1981 1466 515 366 344 274 238 95 2016 1117 899 875 584 45 539 508 419 397 64 333 232 203 41 258 68 190 40 382 351 54 297 255 1208 832 633 291 735 534 167 179 80 55 501 53 225 196 155 500 423 148 275 164 44 120 121 120 93 48 52 448
shrinkage=0.01


Tree=10
num_leaves=64
num_cat=0
split_feature=3 1 4 5 5 5 1 1 1 4 6 3 5 5 5 6 4 5 4 0 4 4 4 0 1 5 4 4 3 1 0 1 5 4 4 5 3 1 4 4 5 6 6 6 0 4 0 4 4 4 5 4 3 4 1 0 4 4 0 4 5 6 4
split_gain=23.9892 12.3545 8.37946 7.98577 7.86442 10.6697 12.2566 7.25078 9.04372 10.6854 6.56846 9.3102 6.33558 5.94906 8.41026 5.77937 5.758 7.56968 6.26311 6.09398 4.88924 12.8566 9.07444 6.79534 6.23769 5.2533 8.13015 6.47427 4.56606 9.74954 4.90943 6.415 8.57778 4.45545 3.65209 3.88797 5.2419 4.54922 7.7219 10.8619 4.73597 11.359 3.38442 4.0153 5.31197 9.71139 3.29336 3.21664 4.68165 3.19357 3.1293 3.06795 2.72051 9.89135 3.04982 6.89392 4.44228 3.46704 2.52972 3.15826 3.18538 4.12207 10.5167
threshold=0.52428824425000009 0.75000000000000011 0.83603006955000014 0.41988086800000007 0.31224887340000002 0.34190638865000006 1.1500000000000001 1.0000000180025095e-35 0.55000000000000016 1.4369999985500002 3.6736043311500004 0.44715768680000006 0.32855744430000006 0.50174639155000011 0.39855990275000003 3.3903632027500001 0.86312783720000008 0.35057093385000004 0.85036453040000015 0.35000000000000003 0.71986999485000014 0.70809224455000008 0.83769040020000007 0.8500000000000002 1.3500000000000003 0.44232323415000008 1.1331545320000003 0.92454477805000013 0.44715768680000006 0.35000000000000003 0.8500000000000002 0.35000000000000003 0.34467363670000001 1.1051485296500003 0.81281065250000017 0.38606993640000004 0.38053829055000005 0.25000000000000006 0.73573696605000005 0.67473594455000019 0.38903714060000011 3.0811388301000004 2.1180339887500002 2.9142135623500005 0.8500000000000002 0.62160648925000006 0.75000000000000011 0.94767820960000015 0.99182061640000019 0.97601398760000013 0.38503246070000002 0.93297046215000001 0.42420513495000006 0.73975788240000007 1.0000000180025095e-35 0.25000000000000006 0.64127117425000002 0.55447093105000012 0.35000000000000003 0.80340828520000007 0.37396494620000009 2.3427788601500006 0.59392586335000008
decision_type=2 2 2 2 2 2 2 2 2 2 2 2 2 2 2 2 2 2 2 2 2 2 2 2 2 2 2 2 2 2 2 2 2 2 2 2 2 2 2 2 2 2 2 2 2 2 2 2 2 2 2 2 2 2 2 2 2 2 2 2 2 2 2
left_child=1 2 34 -2 -3 6 15 -5 9 -9 13 -12 -8 14 16 -6 17 19 -19 -4 21 24 -22 25 42 26 27 50 30 -30 -18 32 -32 47 35 52 37 38 39 -37 41 -39 -7 44 -44 -46 -29 -25 -49 -33 -24 -17 54 -54 55 56 -1 -57 -56 60 -60 62 -62
right_child=3 4 10 7 5 20 12 8 -10 -11 11 -13 -14 -15 -16 51 28 18 -20 -21 22 -23 23 33 -26 -27 -28 46 29 -31 31 49 -34 -35 -36 36 -38 40 -40 -41 -42 -43 43 -45 45 -47 -48 48 -50 -51 -52 -53 53 -55 58 57 -58 -59 59 -61 61 -63 -64
leaf_value=0.031470448902866252 -0.0024387185873211053 -0.0067381069224536471 0.0093171680164719096 0.00058931026227210367 0.054473017916013618 -0.010438035686399035 -0.010443693608773326 0.020816910440624774 0.014262813358782612 0.065759421061453993 -0.0076768427526112959 0.020834139281927743 0.023817805438135158 0.026983316106447254 -0.0026097565100249567 0.011085472397820855 -0.0016010106304462119 -0.010405357219047182 0.020110292352367245 0.040826512230009854 -0.0087972064932187195 0.04638090860122758 0.011381499254079648 -0.0015793697611632452 0.025560904253733675 -0.010442990239898746 0.037042734932119292 -0.010423985180945573 -0.0017715471848967458 0.041250649612057683 0.00075648142394853528 -0.010413866040959419 0.04214305316043495 -0.010422198895371788 -0.010387544872633858 0.030686624541180131 -0.0032482123953067898 -0.010397614075307322 0.030344261338324553 -0.010395695635038234 -0.0055108022780740486 0.043258049215213604 -0.0018891879655405762 -0.0027979768259540293 0.0017088978090926976 0.050272079103964515 0.014888588758966551 0.030448566150661827 0.0025049562656288393 0.015056588409255806 0.038261515076257198 0.037517915544691041 -0.010389513326057189 0.031569596044698084 -0.0089119652406957281 0.01149877983028471 0.0051087352730578295 -0.0054702806568639063 -0.0056692875461380335 0.010606720032836794 -0.010391981190219094 -0.0021510667702515237 0.042277216759277557
leaf_count=25 33 149 25 22 23 40 35 23 37 25 290 32 22 26 409 22 274 37 33 37 174 20 23 87 34 20 36 38 30 25 22 35 28 74 187 27 384 23 44 52 111 20 29 64 21 20 20 25 41 20 20 20 38 26 382 33 52 276 1120 39 21 200 20
internal_value=0 -0.0467534 -0.170784 1.99627 0.443335 0.614833 1.97418 2.59899 3.21147 4.56054 0.167517 -0.469871 0.270331 0.371802 0.304866 3.42214 0.705134 1.61567 0.443668 2.84262 0.394264 0.999588 0.130459 0.551716 0.619368 1.3463 1.6965 0.956656 0.414369 1.78296 0.21198 1.13076 2.39763 -0.0165734 -0.323494 -0.277804 0.0733226 0.616159 1.35655 0.353529 0.0174193 1.48568 0.236585 0.612827 1.44126 2.59832 -0.158532 0.478544 1.33262 -0.0925182 2.40823 2.35955 -0.383218 0.683614 -0.414783 0.00111706 1.38233 -0.345572 -0.508237 -0.405135 -0.447819 0.0973901 1.59724
internal_count=5600 5460 4403 140 1057 908 122 107 85 48 1323 322 57 1001 975 65 566 132 70 62 786 228 558 384 208 157 137 101 434 55 379 105 50 227 3080 2893 661 277 123 79 154 43 174 134 70 41 58 153 66 55 43 42 2232 64 2168 386 77 309 1782 1400 1361 241 41
shrinkage=0.01


Tree=11
num_leaves=64
num_cat=0
split_feature=3 1 5 5 1 2 5 2 2 5 1 1 2 2 0 1 5 5 2 0 2 3 0 2 3 5 1 2 0 6 1 5 5 1 6 2 2 2 5 6 1 2 2 5 5 5 5 5 5 2 5 2 1 2 2 2 2 2 1 2 5 5 1
split_gain=23.0867 12.0784 7.67836 10.1692 11.4003 13.7701 7.51992 7.00614 6.95494 6.84404 6.73442 8.14662 5.84105 5.00804 4.06065 3.88128 6.59375 15.237 5.88075 7.39277 12.4719 6.84464 6.20896 4.86421 3.85759 8.70761 6.19854 15.7061 7.25704 4.19405 5.24264 3.49394 6.9643 4.264 7.69316 4.22649 6.23393 3.73284 3.44642 3.38849 5.97344 5.16494 6.41994 11.4436 3.09494 3.08264 10.9055 2.90556 11.4535 4.18702 7.27204 4.40983 13.2329 3.8849 4.39726 5.95732 9.8285 5.96266 2.80148 2.65106 3.35988 5.12992 8.25027
threshold=0.52428824425000009 0.75000000000000011 0.31224887340000002 0.34190638865000006 1.1500000000000001 1.2933724787000003 0.41988086800000007 1.5267408063000001 1.0641897921500003 0.50174639155000011 1.0000000180025095e-35 0.55000000000000016 0.41795617025000004 1.77314995215 0.55000000000000016 0.15000000000000005 0.42848568980000007 0.43485628290000006 1.0295629693500004 1.0000000180025095e-35 0.70156072470000008 0.42373340265000009 0.35000000000000003 0.66025558990000011 0.42373340265000009 0.38522718385000004 0.35000000000000003 0.77801829005000023 0.8500000000000002 3.3903632027500001 0.35000000000000003 0.39465161815000011 0.37396494620000009 0.35000000000000003 2.3427788601500006 0.77801829005000023 0.88934665295000015 0.7260767546500001 0.44130479235000003 3.5348264453000007 0.45000000000000007 0.97899819945000011 0.81432478330000013 0.31882588455000005 0.34467363670000001 0.41490958935000005 0.42178191750000005 0.38606993640000004 0.38903714060000011 1.5137907680000002 0.37229018515000006 1.1261105287500002 1.0500000000000003 0.87088315395000016 1.1468707344000002 1.3351029102000003 1.2856175042000002 1.2148816202000001 1.1500000000000001 0.65788482550000016 0.36407416180000002 0.33786084520000004 0.25000000000000006
decision_type=2 2 2 2 2 2 2 2 2 2 2 2 2 2 2 2 2 2 2 2 2 2 2 2 2 2 2 2 2 2 2 2 2 2 2 2 2 2 2 2 2 2 2 2 2 2 2 2 2 2 2 2 2 2 2 2 2 2 2 2 2 2 2
left_child=1 9 -3 4 5 8 -2 -6 -4 12 -8 -12 45 14 -5 16 18 -18 19 20 23 22 -20 -14 31 26 44 -28 -29 -27 -31 32 39 35 -35 37 -37 -34 -32 59 -41 42 -42 -44 -26 -1 -47 49 -49 51 -51 52 -16 -50 -55 56 57 -56 -57 60 61 -17 -63
right_child=6 2 3 13 7 -7 10 -9 -10 -11 11 -13 15 -15 47 24 17 -19 21 -21 -22 -23 -24 -25 25 29 27 28 -30 30 38 -33 33 34 -36 36 -38 -39 -40 40 41 -43 43 -45 -46 46 -48 48 53 50 -52 -53 -54 54 55 58 -58 -59 -60 -61 -62 62 -64
leaf_value=-0.0065587231260860772 -0.0024197856707305872 -0.006712575361376435 0.030034975735037415 0.020396041377797269 -0.010436200738059792 0.00066865085701638962 0.0005831014623100978 0.026032911346764942 0.068645372863756285 0.021659808800094354 0.043315680762153967 0.013937794628814882 0.014613174939982706 -0.010420014825377443 -0.0068870549854032348 -0.0058912854901315174 0.045510062471290171 -0.01040533168009505 -0.010449183872383703 -0.0028690047300187443 -0.010414515293903606 0.038706830958749633 0.020883414386967693 0.04908056705921874 -0.010425499101747416 -0.0065769985555723786 0.058120573920134852 0.026102133660420256 -0.010422688306166439 0.023900680164900132 -0.010426520459728706 -0.0083428931839477916 0.0070828904488510393 0.02803602089016902 -0.004731797906100634 0.043061639080794363 0.0025538221629295733 -0.010396051918704841 0.015235927269170136 -0.0043031380375025121 -0.001223301460361732 -0.0043827121134874967 0.0020288849880005328 0.053441030778455349 0.01157280405908098 0.025745094334894185 -0.007499199833460821 0.040165404989056352 0.025675742964850236 0.024111285448451741 -0.010410836346477397 -0.0072821688018704827 0.029993680776357983 -0.0071142042868955081 0.019263608653631307 -0.01041785656099108 0.045351060287967065 -0.010397354654843706 0.0053204581836838651 -0.0077308018259234128 -0.010386449706586139 -0.002006216913703019 0.027422034080582778
leaf_count=873 33 149 23 40 37 22 22 20 20 30 48 37 21 59 73 123 26 24 31 542 31 20 32 20 31 214 22 28 28 31 41 263 231 20 239 20 21 39 20 263 29 45 21 23 36 37 93 23 21 43 25 168 37 76 41 46 20 31 83 633 93 66 43
internal_value=0 -0.0463878 0.43691 0.605009 1.91872 3.28277 1.94021 0.266804 4.82793 -0.169399 2.51233 3.08738 -0.187495 0.388725 0.502629 -0.0847583 0.242733 2.00894 0.109594 -0.0725459 1.44468 1.34782 0.536437 3.22745 -0.179923 0.252318 1.27094 2.23451 0.795661 -0.250291 0.653629 -0.272409 -0.19418 0.285315 -0.206963 0.695411 2.24903 0.459314 -0.199665 -0.402341 0.00627951 0.961686 1.78308 2.97336 0.126179 -0.541287 0.202618 0.409812 0.737523 0.0795202 1.19792 -0.20051 0.581063 0.478293 0.329386 0.691834 1.64868 0.731522 -0.028292 -0.572784 -0.187265 0.148928 0.974862
internal_count=5600 5460 1057 908 122 65 140 57 43 4403 107 85 4373 786 727 3370 747 50 697 614 72 83 63 41 2623 451 145 78 56 306 92 2172 1909 570 259 311 41 270 61 1339 381 118 73 44 67 1003 130 687 341 346 68 278 110 318 297 221 92 72 129 958 325 232 109
shrinkage=0.01


Tree=12
num_leaves=64
num_cat=0
split_feature=3 1 5 5 1 2 5 2 5 1 1 2 2 2 0 1 5 5 2 0 2 3 0 2 3 5 1 2 0 6 1 5 5 1 6 2 2 2 5 6 1 2 2 5 5 5 5 5 5 2 5 2 1 2 2 2 2 2 1 6 1 0 0
split_gain=22.2342 11.8097 7.49791 9.69776 10.6232 12.5219 7.09239 6.75304 6.59762 6.26922 7.36977 5.95547 5.76683 4.91469 3.87357 3.80397 6.31994 14.1985 5.68865 7.17014 11.8221 6.36201 5.99803 4.36406 3.78632 8.43036 5.87062 14.1834 6.95979 4.11953 5.00474 3.46551 6.84516 4.14888 7.39386 4.0113 5.73475 3.65456 3.36924 3.35035 5.82315 4.9536 6.02675 10.3709 3.04873 10.4898 3.02674 2.81511 10.7003 4.06256 6.9618 4.33505 12.6294 3.69084 4.29678 5.71452 9.04324 5.75844 2.75956 2.6534 3.27037 3.58575 4.27688
threshold=0.52428824425000009 0.75000000000000011 0.31224887340000002 0.34190638865000006 1.1500000000000001 1.2933724787000003 0.41988086800000007 1.5267408063000001 0.50174639155000011 1.0000000180025095e-35 0.55000000000000016 1.0641897921500003 0.41795617025000004 1.77314995215 0.55000000000000016 0.15000000000000005 0.42848568980000007 0.43485628290000006 1.0295629693500004 1.0000000180025095e-35 0.70156072470000008 0.42373340265000009 0.35000000000000003 0.66025558990000011 0.42373340265000009 0.38522718385000004 0.35000000000000003 0.77801829005000023 0.8500000000000002 3.3903632027500001 0.35000000000000003 0.39465161815000011 0.37396494620000009 0.35000000000000003 2.3427788601500006 0.77801829005000023 0.88934665295000015 0.7260767546500001 0.44130479235000003 3.5348264453000007 0.45000000000000007 0.97899819945000011 0.81432478330000013 0.31882588455000005 0.41490958935000005 0.42178191750000005 0.34467363670000001 0.38606993640000004 0.38903714060000011 1.5137907680000002 0.37229018515000006 1.1261105287500002 1.0500000000000003 0.87088315395000016 1.1468707344000002 1.3351029102000003 1.2856175042000002 1.2148816202000001 1.1500000000000001 3.6736043311500004 0.35000000000000003 0.65000000000000002 0.8500000000000002
decision_type=2 2 2 2 2 2 2 2 2 2 2 2 2 2 2 2 2 2 2 2 2 2 2 2 2 2 2 2 2 2 2 2 2 2 2 2 2 2 2 2 2 2 2 2 2 2 2 2 2 2 2 2 2 2 2 2 2 2 2 2 2 2 2
left_child=1 8 -3 4 5 11 -2 -6 12 -8 -11 -4 44 14 -5 16 18 -18 19 20 23 22 -20 -14 31 26 46 -28 -29 -27 -31 32 39 35 -35 37 -37 -34 -32 -17 59 42 -42 -44 -1 -46 -26 49 -49 51 -51 52 -16 -50 -55 56 57 -56 -57 60 61 -41 -63
right_child=6 2 3 13 7 -7 9 -9 -10 10 -12 -13 15 -15 47 24 17 -19 21 -21 -22 -23 -24 -25 25 29 27 28 -30 30 38 -33 33 34 -36 36 -38 -39 -40 40 41 -43 43 -45 45 -47 -48 48 53 50 -52 -53 -54 54 55 58 -58 -59 -60 -61 -62 62 -64
leaf_value=-0.0065328707169146514 -0.0024009589898158689 -0.0066870043062492559 0.028931150263603322 0.019817501697530677 -0.010431676409093522 0.00066155758242161951 0.00057696179870154259 0.025164727748626096 0.021022291694322921 0.041237777951503331 0.013624458948330467 0.063857965171190481 0.014272964316069231 -0.010415663705206961 -0.0068616751874624928 -0.0057010190193151049 0.043218197666948573 -0.010401138021493244 -0.010444521889375587 -0.002847885676408935 -0.010410224151052748 0.03698397859620229 0.020281523808274218 0.046457894846659686 -0.010421089382819493 -0.0065511029673931322 0.054548342517418108 0.025226985230353743 -0.010418308490106373 0.023144241914085879 -0.010422100430921861 -0.0083236409133883183 0.0069661876525250986 0.027048448535765834 -0.0047050879613773668 0.040966550283417939 0.0025223022362910103 -0.010391956849955884 0.014873130803255905 -0.010395431287021709 -0.0012124407422764241 -0.0043565535960766464 0.0020048331298752747 0.050384965755128408 0.024887531743875861 -0.0074760261829842981 0.011335115912144797 0.038335224221694442 0.024825383861045328 0.023347355502329963 -0.010406583834190989 -0.0072580798713794015 0.028887181964614008 -0.0070893839743131348 0.018737084734936842 -0.010413528993296775 0.043087723594646965 -0.010393246095725684 0.0052414217878960405 -0.010401774773764576 -0.010406384409947275 0.027271037364509119 0.0015878280041281545
leaf_count=873 33 149 23 40 37 22 22 20 30 48 37 20 21 59 73 958 26 24 31 542 31 20 32 20 31 214 22 28 28 31 41 263 231 20 239 20 21 39 20 28 29 45 21 23 37 93 36 23 21 43 25 168 37 76 41 46 20 31 83 111 52 28 44
internal_value=0 -0.0460322 0.43062 0.595418 1.86577 3.15315 1.88696 0.263325 -0.168032 2.43089 2.97201 4.5737 -0.186005 0.383315 0.495149 -0.0840534 0.239649 1.95178 0.108308 -0.0719176 1.41084 1.31756 0.528294 3.10155 -0.178484 0.249041 1.24305 2.16618 0.781698 -0.248407 0.643013 -0.270412 -0.192636 0.281647 -0.20532 0.683947 2.18013 0.452767 -0.198089 -0.39985 0.00612251 0.943322 1.73598 2.86362 -0.538589 0.200094 0.124709 0.404034 0.725022 0.078563 1.17274 -0.198941 0.571991 0.471288 0.32498 0.680419 1.60746 0.71924 -0.0280418 -0.427713 0.0148118 0.559993 1.15816
internal_count=5600 5460 1057 908 122 65 140 57 4403 107 85 43 4373 786 727 3370 747 50 697 614 72 83 63 41 2623 451 145 78 56 306 92 2172 1909 570 259 311 41 270 61 1339 381 118 73 44 1003 130 67 687 341 346 68 278 110 318 297 221 92 72 129 263 152 100 72
shrinkage=0.01


Tree=13
num_leaves=64
num_cat=0
split_feature=3 1 5 5 1 2 5 2 5 1 1 2 2 2 1 5 5 2 0 2 3 0 2 2 3 5 1 2 0 6 1 0 5 5 5 6 0 5 5 5 5 2 3 2 6 5 5 2 5 2 1 2 2 2 2 2 1 2 5 5 0 5 6
split_gain=21.4255 11.5481 7.32297 9.25615 9.91957 11.4324 6.69839 6.51475 6.36385 5.84794 6.69155 5.69342 5.14588 4.82378 3.72831 6.06195 13.2682 5.52772 8.27809 10.2426 7.75163 6.09172 4.84237 3.93257 3.71645 8.16498 5.5664 12.8665 6.68128 4.04663 4.78163 3.69766 3.43721 6.74459 8.35328 6.31796 3.70018 3.29488 3.01513 10.0984 2.96075 2.85951 4.8168 4.03641 6.22978 2.72816 10.017 3.94285 6.67132 4.26183 12.0672 3.50982 4.19926 5.48488 8.3446 5.56467 2.71846 2.30296 2.11006 3.35399 4.22785 3.84116 3.31186
threshold=0.52428824425000009 0.75000000000000011 0.31224887340000002 0.34190638865000006 1.1500000000000001 1.2933724787000003 0.41988086800000007 1.5267408063000001 0.50174639155000011 1.0000000180025095e-35 0.55000000000000016 0.41795617025000004 1.0641897921500003 1.77314995215 0.15000000000000005 0.42848568980000007 0.43485628290000006 0.93122901150000004 1.0000000180025095e-35 0.70156072470000008 0.42420513495000006 0.35000000000000003 1.1392156647000002 0.66025558990000011 0.42373340265000009 0.38522718385000004 0.35000000000000003 0.77801829005000023 0.8500000000000002 3.3903632027500001 0.35000000000000003 0.55000000000000016 0.39465161815000011 0.38865150955000011 0.38903714060000011 3.5348264453000007 0.8500000000000002 0.44130479235000003 0.41490958935000005 0.42178191750000005 0.34467363670000001 0.53822617525000005 0.31614868930000006 0.47598570595000006 2.9142135623500005 0.38606993640000004 0.38903714060000011 1.5137907680000002 0.37229018515000006 1.1261105287500002 1.0500000000000003 0.87088315395000016 1.1468707344000002 1.3351029102000003 1.2856175042000002 1.2148816202000001 1.1500000000000001 1.6169995102000001 0.37396494620000009 0.38294894365000004 0.55000000000000016 0.37463314795000008 3.5348264453000007
decision_type=2 2 2 2 2 2 2 2 2 2 2 2 2 2 2 2 2 2 2 2 2 2 2 2 2 2 2 2 2 2 2 2 2 2 2 2 2 2 2 2 2 2 2 2 2 2 2 2 2 2 2 2 2 2 2 2 2 2 2 2 2 2 2
left_child=1 8 -3 4 5 12 -2 -6 11 -8 -11 38 -4 31 15 17 -17 18 19 23 21 -19 -23 -13 32 26 40 -28 -29 -27 -31 -5 33 58 -35 36 -36 -32 -1 -40 -26 43 -43 -20 -45 47 -47 49 57 50 -33 -48 -53 54 55 -54 -55 -49 62 60 -60 -62 -16
right_child=6 2 3 13 7 -7 9 -9 -10 10 -12 14 -14 -15 24 16 -18 20 41 -21 -22 22 -24 -25 25 29 27 28 -30 30 37 45 -34 34 35 -37 -38 -39 39 -41 -42 42 -44 44 -46 46 51 48 -50 -51 -52 52 53 56 -56 -57 -58 -59 59 -61 61 -63 -64
leaf_value=-0.0065069837919964615 -0.0023822381174461713 -0.0066613947058767288 0.027898097703902183 0.019266246887963915 -0.010427201075720019 0.00065454446869902085 0.00057088995855159312 0.024346204827089914 0.020416238823491546 0.039340043247584118 0.013322193213416506 0.013945281923040021 0.059687141689934324 -0.010411359516397205 -0.0056740300974289191 0.041134805838720367 -0.010396989233350999 -0.010433406562301937 -0.010388157492423221 -0.010401430695201927 0.033711756678723177 1.0616176078354161e-05 0.031925994142782937 0.04408960801872136 -0.010416726814179201 -0.0065251732008646543 0.051377344737871533 0.024402129347245803 -0.010413975982509009 0.022428382765307738 -0.010417727877152911 -0.006836253683197166 -0.0083043273957775481 0.031252262332124844 -0.010397456961162241 0.023143601817269013 0.0067994663253003245 0.014524092517261668 0.024078809467847871 -0.0074527950146608506 0.011104860349158854 0.012940516661429232 -0.007361877565764609 -0.010380771279096328 0.020890126482578403 0.036654512276299352 0.024023214299713842 0.033979312029331285 -0.010402377216986898 -0.0072339385865010852 0.02785177437198709 -0.007064517027948654 0.018234303949338473 -0.010409248303586955 0.041028904227500718 -0.010389181541197057 0.0051639474573807534 0.011438675081763607 0.020234458105784253 -0.0076919831199092304 0.012429837837731906 -0.0028502215501592194 5.9289617576586537e-05
leaf_count=873 33 149 23 40 37 22 22 20 30 48 37 21 20 59 958 26 24 42 38 27 26 25 22 20 31 214 22 28 28 31 41 73 263 32 74 31 61 20 37 93 36 31 365 27 53 23 21 21 25 168 37 76 41 46 20 31 83 22 35 101 59 177 381
internal_value=0 -0.045675 0.424469 0.586065 1.81543 3.03287 1.83623 0.259912 -0.166673 2.35407 2.86428 -0.184522 4.34404 0.378014 -0.08335 0.236621 1.89749 0.107043 -0.107785 1.51864 1.09182 0.365027 1.58416 2.98439 -0.177053 0.245829 1.2162 2.10157 0.768113 -0.246534 0.632652 0.487834 -0.268423 -0.191099 0.709551 0.24393 -0.246164 -0.196524 -0.535895 0.197614 0.12326 -0.345075 -0.556456 0.377619 1.05035 0.398376 0.712851 0.0776226 1.1484 -0.197382 0.563131 0.464435 0.320659 0.669291 1.56799 0.707264 -0.0277939 2.26245 -0.298804 0.04594 0.343951 0.0949706 -0.397363
internal_count=5600 5460 1057 908 122 65 140 57 4403 107 85 4373 43 786 3370 747 50 697 582 68 115 89 47 41 2623 451 145 78 56 306 92 727 2172 1909 198 166 135 61 1003 130 67 514 396 118 80 687 341 346 68 278 110 318 297 221 92 72 129 43 1711 372 271 236 1339
shrinkage=0.01


Tree=14
num_leaves=64
num_cat=0
split_feature=3 1 4 5 5 1 2 5 2 2 2 0 1 1 4 3 5 2 5 5 1 2 2 2 2 4 1 4 4 4 2 2 1 2 4 2 5 5 2 5 4 4 2 2 2 4 5 3 2 2 2 5 4 2 2 4 4 0 2 5 1 4 4
split_gain=20.6574 11.293 8.02925 7.15328 8.84186 9.2803 10.4756 6.33448 6.29002 5.68491 5.8713 7.93959 5.46527 6.0964 8.35055 5.41432 17.3046 9.72437 6.55409 8.01277 5.74261 4.98034 7.06701 4.73518 4.4822 4.3986 10.4066 9.59937 7.26116 5.57672 6.07526 10.2301 11.9316 6.22226 6.81457 4.36209 6.87286 10.1969 3.97313 4.26613 3.951 3.94125 4.3155 5.22911 10.5043 3.65996 3.75275 4.91941 4.18415 6.55605 6.1044 4.87392 3.60217 3.42382 7.22747 6.84771 6.92982 3.6565 9.77953 3.42211 3.33406 3.0748 5.85792
threshold=0.52428824425000009 0.75000000000000011 0.83603006955000014 0.31224887340000002 0.34190638865000006 1.1500000000000001 1.2933724787000003 0.41988086800000007 1.5267408063000001 1.0000000180025095e-35 0.53822617525000005 0.8500000000000002 1.0000000180025095e-35 0.55000000000000016 1.4369999985500002 0.44547726860000003 0.38716919210000006 0.92110665570000017 0.32062435290000008 0.31224887340000002 0.35000000000000003 0.74519289855000015 0.64590048885000007 1.77314995215 1.0641897921500003 0.72123201240000012 1.3500000000000003 0.83769040020000007 0.7060102074500002 1.3120153005000004 1.3351029102000003 1.2856175042000002 1.2500000000000002 1.5496972854500004 1.0798635640500003 1.1585281532000002 0.39420804650000008 0.4101828815000001 0.85604466395000012 0.44424089355000002 0.86876645805000008 1.0464061379500003 0.86367671460000006 0.62524990010000014 0.57363963065000012 0.81281065250000017 0.38606993640000004 0.38053829055000005 1.0693163604000002 0.62524990010000014 0.49085374470000004 0.39223712655000004 0.9138907340500001 0.62524990010000014 0.64783288105000014 0.58065401445000009 0.71516194775000008 1.0000000180025095e-35 0.73463423195000011 0.40155941665 0.55000000000000016 0.87507195690000017 0.85312381385000002
decision_type=2 2 2 2 2 2 2 2 2 2 2 2 2 2 2 2 2 2 2 2 2 2 2 2 2 2 2 2 2 2 2 2 2 2 2 2 2 2 2 2 2 2 2 2 2 2 2 2 2 2 2 2 2 2 2 2 2 2 2 2 2 2 2
left_child=1 2 45 -3 5 6 24 -2 -7 61 11 40 -9 14 -14 18 17 -17 19 21 41 22 -12 25 -5 26 28 -27 -6 30 31 32 35 -32 -35 36 -29 -38 -18 -40 -11 42 43 44 -20 46 53 48 49 50 -48 -52 -46 -1 55 -55 -57 58 -56 -42 -51 62 -4
right_child=7 3 9 4 23 8 -8 12 -10 10 15 -13 13 -15 -16 16 38 -19 20 -21 -22 -23 -24 -25 -26 27 -28 29 -30 -31 33 -33 -34 34 -36 -37 37 -39 39 -41 59 -43 -44 -45 52 -47 47 -49 -50 60 51 -53 -54 54 57 56 -58 -59 -60 -61 -62 -63 -64
leaf_value=-0.006002196021454285 -0.0023636233782075126 -0.006635746278912771 -0.010418968909316748 0.026929185227356208 0.0027109372895307575 -0.010422773826945264 0.00064760951398835486 0.00056488503273758673 0.023573187280283691 0.024913323362520987 -0.0012708583684979888 0.039350287304914709 0.016903704808164041 0.013030428714409646 0.053804318337629886 0.015984232404212369 -0.007100277125994198 0.060856682472838 -0.010416418431404744 0.033437155012522972 -0.0082880718939331178 -0.0061765194669770457 0.037376836757695868 -0.010407101450956443 0.056019644083619799 -0.0086629850349929753 0.037306265680501403 -0.0045360358437671645 0.032493102026983516 -0.010443318705323447 -0.010402886649560215 0.042644628526287753 0.042336094297321283 0.00031743919585580085 0.033791580915407723 -0.010422899330189181 0.048746634935207749 0.00052355116025326934 -6.7458603263451675e-05 0.02424872510740831 -0.010397004060367093 -0.010409509428003914 0.019404548095176073 -0.0044831717755980114 0.012264279978413567 -0.010381217867398708 0.0026591680687165697 -0.0031622963211844204 0.02830829367477029 -0.0061801388552046579 0.04316335068876917 0.010898671297217204 0.040063256197376503 0.037535794137053193 0.035077177869084798 -0.010385538610529909 0.026847835031137177 -0.0036232805437247436 -0.010399459782094382 0.01639962291114028 0.016668460091027973 -0.0071406775659243991 0.019930615625381776
leaf_count=1043 33 149 32 23 167 37 22 22 20 21 27 25 23 37 25 27 81 20 33 26 254 61 20 59 20 161 29 42 20 42 69 24 22 46 22 40 20 23 48 29 36 55 41 138 22 187 64 384 20 122 25 26 25 20 20 37 20 1064 28 20 20 249 33
internal_value=0 -0.0453169 -0.16532 0.418449 0.576937 1.76749 2.92094 1.78784 0.256561 0.164914 0.349409 1.5101 2.28148 2.76345 3.75998 0.219037 0.936568 3.50935 0.0027163 0.985154 -0.246192 0.358095 1.55066 0.372816 4.13551 0.480674 1.05956 0.21736 0.627724 0.663966 0.896381 1.50423 0.979064 0.0880045 1.12723 0.360736 0.98473 2.37028 0.104166 0.90348 0.674443 0.214738 0.477636 0.178799 1.196 -0.316147 -0.270337 0.0743899 0.59422 0.414241 1.35761 2.69789 2.69755 -0.374952 -0.184567 1.32418 0.371278 -0.295286 1.0578 -0.0718386 -0.308161 -0.444745 0.527578
internal_count=5600 5460 4403 1057 908 122 65 140 57 1323 1009 102 107 85 48 907 205 47 702 134 568 108 47 786 43 727 216 511 187 350 308 171 147 137 68 125 85 43 158 77 77 314 259 218 80 3080 2893 661 277 257 115 51 47 2232 1189 77 57 1112 48 56 142 314 65
shrinkage=0.01


Tree=15
num_leaves=64
num_cat=0
split_feature=3 1 5 0 6 2 1 0 2 2 2 5 0 5 6 5 2 2 2 5 3 2 5 5 2 2 6 2 5 2 5 1 5 5 2 5 5 5 2 2 2 5 5 0 5 3 2 5 6 1 6 2 5 5 5 3 5 5 2 3 5 2 2
split_gain=18.4991 9.77094 6.60214 4.95242 6.3147 6.26439 14.9806 7.23203 5.69498 5.65647 15.1459 6.65975 4.92391 4.53692 4.5177 7.17681 7.42095 5.58024 6.65637 5.96377 4.34043 9.65304 5.00377 10.6529 4.15154 7.01521 4.80511 4.12473 3.70638 3.89614 5.80463 4.12337 3.58825 5.62515 3.24771 3.17594 3.25572 3.15644 3.98559 4.8536 2.54192 2.53645 5.45253 2.36525 2.25456 5.18183 1.9661 11.8691 4.94779 1.92759 3.46443 1.7211 8.28582 8.75551 3.45256 11.5799 7.4923 3.01853 2.22191 5.92746 2.3673 5.76026 5.81544
threshold=0.50024987510000007 0.75000000000000011 0.41988086800000007 1.0000000180025095e-35 3.5348264453000007 0.87374908755000014 0.35000000000000003 0.65000000000000002 0.97227181085000014 0.7260767546500001 0.64590048885000007 0.38203402430000005 0.25000000000000006 0.32488458580000007 3.6736043311500004 0.30265419760000006 0.64250481775000012 0.61720129290000014 0.52231447470000003 0.37516648170000005 0.44065552170000005 1.0641897921500003 0.31224887340000002 0.32007810595000002 0.83945664890000005 1.0079372381000002 3.3903632027500001 1.0538619037000003 0.42708311405000005 1.4922717434000001 0.37060755395000006 0.8500000000000002 0.39843443130000006 0.37060755395000006 0.77801829005000023 0.32855744430000006 0.49141359175000004 0.38639349505000004 1.3351029102000003 1.2359206835500001 1.2269117140500001 0.38736287360000005 0.39755502265000009 0.15000000000000005 0.35846893940000008 0.39993749025000008 0.58336303300000014 0.46743952975000008 3.3903632027500001 1.0500000000000003 3.5348264453000007 0.51143172240000012 0.41490958935000005 0.42219653285000008 0.39881072710000004 0.44693399610000001 0.39843443130000006 0.37229018515000006 0.53822617525000005 0.34603945240000006 0.35440087485000005 0.60337586375000007 1.0538619037000003
decision_type=2 2 2 2 2 2 2 2 2 2 2 2 2 2 2 2 2 2 2 2 2 2 2 2 2 2 2 2 2 2 2 2 2 2 2 2 2 2 2 2 2 2 2 2 2 2 2 2 2 2 2 2 2 2 2 2 2 2 2 2 2 2 2
left_child=1 3 -2 9 13 7 8 12 -7 10 11 -1 32 -5 15 16 -9 18 -17 -20 22 -22 49 -24 26 -26 -25 -27 29 31 44 40 33 43 -19 -15 51 -33 39 -39 -29 -32 -43 -6 45 -31 48 -48 -4 50 -3 52 -37 -54 55 56 58 -57 59 -53 61 -60 -63
right_child=2 20 46 4 5 6 -8 14 -10 -11 -12 -13 -14 35 -16 17 -18 34 19 -21 21 -23 23 24 25 27 -28 28 -30 30 41 37 -34 -35 -36 36 -38 38 -40 -41 -42 42 -44 -45 -46 -47 47 -49 -50 -51 -52 54 53 -55 -56 57 -58 -59 60 -61 -62 62 -64
leaf_value=-0.010389389927268124 -0.0035399622641852074 -0.010393938969062691 0.013507340921260784 -0.0081041365738726799 -0.005888310127021029 0.050913778172058936 0.00042271976207120166 0.0019487192876425827 0.018782819816117107 -0.0059613560273113122 0.041185147716561919 0.022604489971900878 -0.0087746079407935683 0.013113173303805035 -0.0031879164963948777 -0.0029193737406449792 0.041473493589302787 -0.0076483304250822472 0.04480019249459085 0.0094367071517982588 0.024620737196773951 -0.0065524578001933701 0.038812194176312154 0.0049949753980941631 -0.010437643706463558 0.025092283431111057 0.033102477563165769 0.020176164671719479 0.026293484669720511 -0.0011892686734060402 -0.010413454156740887 -0.0057882118521950686 -0.010406331843282301 0.026481759173643541 0.0099691063181449723 -0.0078735535305585261 0.013089953747052106 0.0018439818389112948 -0.010405663035715593 0.029933154325674918 -0.00021786539221287947 0.021537725593663244 -0.01040603920221523 0.010585747210019243 0.031179505123791321 0.030655272065712277 0.032783142196512544 -0.00431292487954735 0.042405774913919822 -0.010378800281170631 0.013881178586866777 0.022214722841563513 0.030201318073134493 -0.0023880464359939957 -0.0064035068582112284 0.011927994115965897 0.029505574059041775 0.038524762077675904 0.028326193789390063 -0.010395432110770432 -0.0036971466469614524 -0.0046573954659909636 0.022834826452760502
leaf_count=52 39 31 24 496 64 20 171 20 40 59 30 25 339 34 146 36 28 97 23 27 27 199 22 32 70 28 26 37 20 25 31 164 46 30 38 570 32 40 29 23 25 30 25 41 29 23 38 37 20 69 34 35 31 69 413 22 20 20 22 28 1112 143 24
internal_value=0 -0.0699998 1.55076 -0.181328 -0.217007 0.105275 0.849493 -0.0877082 2.91579 0.682235 1.37605 0.0400747 -0.507203 -0.343943 0.410035 0.801345 2.52224 0.396722 1.42083 2.61697 0.364703 -0.254787 0.534907 0.698851 0.577209 0.45114 1.8196 0.646151 0.542147 0.454071 1.07815 0.131354 0.200343 0.648163 -0.256248 -0.256116 -0.277858 -0.156968 0.580663 1.24679 1.2529 0.153177 0.788177 0.0553753 2.02985 1.39231 2.02579 1.5454 2.72656 -0.410238 0.233147 -0.300178 -0.531804 0.836592 -0.218204 -0.0960449 -0.1832 2.46277 -0.230813 0.740408 -0.277065 0.264106 -0.0608381
internal_count=5600 5442 158 4403 4237 1166 231 935 60 166 107 77 520 3071 415 269 48 221 86 50 1039 226 813 679 657 599 58 529 501 481 163 318 181 135 135 2575 2541 256 92 63 62 86 55 105 77 48 119 75 44 134 65 2509 670 100 1839 1426 1384 42 1364 63 1301 189 167
shrinkage=0.01


Tree=16
num_leaves=64
num_cat=0
split_feature=4 6 2 2 2 0 2 2 2 4 2 1 2 5 2 2 5 5 0 5 2 5 1 6 4 2 1 5 1 5 2 2 2 2 4 2 4 2 2 4 1 2 0 5 2 0 5 5 1 5 5 5 5 5 2 2 2 5 0 5 6 5 0
split_gain=21.3035 7.94062 6.53845 6.01179 9.80651 5.25467 16.0074 6.04737 5.62069 7.12887 7.69475 5.11702 6.80554 5.9422 12.1294 6.43561 7.27196 7.14828 9.4514 6.31215 7.02734 5.9873 8.24621 6.11508 5.5357 5.06938 6.28597 4.47789 4.99545 3.97879 9.43548 9.88927 5.09039 4.36879 6.41384 3.54481 5.34686 3.50593 3.10336 2.68281 2.61382 6.783 5.46759 5.17765 4.96348 4.04498 3.99922 5.5278 3.55195 3.87381 5.98935 2.38452 2.03364 6.90879 4.2238 13.0778 4.94806 8.52986 4.00199 6.02172 3.29153 2.27673 2.83609
threshold=0.83769040020000007 2.5476205269500007 0.49085374470000004 1.3351029102000003 1.3135115096000003 1.0000000180025095e-35 0.7260767546500001 0.66025558990000011 1.5698326800500002 0.76453545525000011 1.6778889864000002 0.95000000000000007 1.0641897921500003 0.50074937610000014 0.50590256435000003 1.0116508667000002 0.40963391020000001 0.32062435290000008 0.65000000000000002 0.31224887340000002 0.75020827550000002 0.33083227520000008 0.55000000000000016 3.5348264453000007 0.9552383767 1.1644472860500001 1.1500000000000001 0.31882588455000005 1.4500000000000002 0.35440087485000005 0.60337586375000007 0.56871559190000009 0.86800775780000017 0.91224296980000008 0.58065401445000009 0.49592076050000006 1.0180422966500002 1.1198493115000001 0.62524990010000014 1.2741143344500003 0.35000000000000003 0.86367671460000006 0.8500000000000002 0.35902643440000009 0.69214337320000008 0.8500000000000002 0.40681644795000005 0.35902643440000009 0.15000000000000005 0.37060755395000006 0.37986819300000002 0.33060547050000005 0.38606993640000004 0.39465161815000011 1.1120083094500002 1.2359206835500001 0.60595992730000015 0.39064047875000002 0.75000000000000011 0.39357335260000004 3.5348264453000007 0.42848568980000007 0.65000000000000002
decision_type=2 2 2 2 2 2 2 2 2 2 2 2 2 2 2 2 2 2 2 2 2 2 2 2 2 2 2 2 2 2 2 2 2 2 2 2 2 2 2 2 2 2 2 2 2 2 2 2 2 2 2 2 2 2 2 2 2 2 2 2 2 2 2
left_child=2 -2 -1 4 11 6 7 -4 27 10 -10 13 24 15 -15 17 21 18 35 20 38 37 -23 -24 -13 -14 -27 -7 29 30 31 -29 -32 -34 -35 36 -3 -17 -20 -18 41 42 48 45 46 -42 47 -44 -19 -50 -51 -36 -31 54 56 -56 57 -54 -58 -60 61 -55 -63
right_child=1 3 5 -5 -6 8 -8 -9 9 -11 -12 12 25 14 -16 16 39 40 19 -21 -22 22 23 -25 -26 26 -28 28 -30 52 32 -33 33 34 51 -37 -38 -39 -40 -41 43 -43 44 -45 -46 -47 -48 -49 49 50 -52 -53 53 60 55 -57 58 -59 59 -61 -62 62 -64
leaf_value=-0.0068499412378310968 0.033304808419847488 -0.0034741998267469459 0.011258879443547294 -0.0028851002432649002 0.034205327947081428 -0.0072005004132142557 -0.010413612712756442 0.046310735403884966 0.043031418099425428 -0.010402451136405717 0.0052513669828689749 0.010144065758641532 -0.010481280887604949 0.034158073520911547 -0.0040373690992959446 -0.010477129315932816 -0.010423436227714734 -0.0077836504946720902 0.012211008029597759 0.042914199727078758 -0.0033632604883251198 0.048931853905394278 0.028528623502853977 -0.0018433259043416225 0.042740040259849413 0.035285367303228704 0.0019629413632910511 0.0052792704136573531 0.021614234375134704 -0.0040092895410076173 -0.0068757134461363981 0.049552622249471094 0.028919800220488182 0.029763707145161643 -0.010430867028160561 -0.010421905187104978 0.029373298189567777 0.015236018919888831 0.03772968060227759 0.010470648636460101 0.020191343127592864 0.021168065039953242 0.0015404136153827185 -0.0082167873261900573 -0.010397574885516889 -0.0038346122444176496 -0.0009184448617114004 0.033284593074586422 -0.010395987003169653 0.025514131959627023 0.00089949211733584937 0.0055944428241296029 0.043241695946592267 -0.0077802464136530036 0.048972535308894657 -0.0022507833593963435 -0.01040353782336266 -0.00093074852634227176 -0.0029145478812801183 0.024505017410510043 0.015056153798888781 -0.010432438136876979 0.012828851074056296
leaf_count=819 21 40 24 305 24 443 52 22 22 29 32 22 31 33 37 23 45 210 21 21 37 24 37 30 25 20 39 36 23 1123 157 23 20 20 48 54 20 28 23 21 32 39 21 244 26 38 28 39 67 29 230 48 20 322 20 32 76 29 69 30 20 23 34
internal_value=0 0.399212 -0.26024 0.364611 0.48357 -0.142626 0.991626 2.99623 -0.187823 1.10339 2.12358 0.432558 1.31911 0.342847 1.63768 0.2643 1.0625 0.117931 0.943976 1.99627 1.35245 1.68755 2.45518 1.54432 2.76685 0.524 1.36895 -0.231984 -0.135724 -0.16304 0.342025 2.27718 -0.0325517 0.68003 0.30191 -0.106342 0.778715 0.354737 2.59984 -0.3005 -0.0679749 0.109529 -0.0201384 -0.455517 0.983823 0.729123 1.5362 2.24039 -0.242613 0.0882373 0.365491 -0.235692 -0.263171 -0.0383336 0.579751 1.86153 0.265435 1.73434 -0.134662 0.533119 -0.48643 -0.600691 0.338045
internal_count=5600 1984 3616 1963 1658 2797 98 46 2699 83 54 1634 137 1497 70 1427 208 1219 216 102 81 142 91 67 47 90 59 2616 2173 2150 352 59 293 136 116 114 60 51 44 66 1003 689 650 314 114 70 88 60 536 326 259 96 1798 675 276 52 224 49 175 99 399 379 57
shrinkage=0.01


Tree=17
num_leaves=64
num_cat=0
split_feature=4 3 5 2 5 5 0 2 2 2 4 2 5 2 5 2 6 5 6 5 2 2 2 0 2 2 3 2 2 6 5 2 5 0 5 3 2 2 0 5 6 4 2 4 4 4 5 4 2 2 2 2 2 6 3 4 4 3 4 6 2 2 4
split_gain=20.8514 10.2191 7.34783 6.47226 5.74759 5.62779 5.1172 15.2747 5.47653 5.4726 6.84783 7.0752 4.6613 12.1616 4.4327 4.41156 5.06219 5.20634 4.59231 4.13147 8.65774 9.01465 5.85497 3.97348 11.635 10.1186 8.56698 9.5757 12.4101 10.5087 8.01534 9.31699 7.61908 6.33232 5.94149 5.65918 4.97457 4.813 3.91617 7.75547 3.7635 4.15969 3.30396 5.43757 3.27325 3.17089 9.06591 2.75091 2.60052 4.82689 3.88269 5.5066 2.46366 2.36105 2.30556 2.14574 5.27724 2.92676 4.39382 3.40931 4.86053 14.4688 4.78871
threshold=0.83769040020000007 0.50024987510000007 0.39855990275000003 0.49085374470000004 0.41988086800000007 0.40329885370000007 1.0000000180025095e-35 0.7260767546500001 0.66025558990000011 1.5698326800500002 0.76453545525000011 1.6778889864000002 0.40963391020000001 1.0465717738000002 0.31882588455000005 0.46165413655000004 3.2394512253000003 0.43075514695000006 3.3903632027500001 0.35440087485000005 0.60337586375000007 0.56871559190000009 0.86800775780000017 0.65000000000000002 0.86367671460000006 1.2269117140500001 0.42996224345000006 1.1468707344000002 0.74267250905000004 3.6736043311500004 0.3166225578500001 0.60853301805000004 0.38639349505000004 0.25000000000000006 0.38255717970000003 0.34603945240000006 0.52231447470000003 0.99435904040000012 0.55000000000000016 0.34190638865000006 3.6736043311500004 0.89616376770000017 0.91224296980000008 0.58065401445000009 0.75759241965000002 1.4369999985500002 0.44130479235000003 1.2258451276500002 0.86800775780000017 1.3255894443500003 1.2086924131500003 0.97899819945000011 0.67523140215000022 3.2394512253000003 0.5468997376000001 0.60958256860000015 0.61794781580000013 0.37067024925000008 0.63339404515000008 3.3903632027500001 0.77801829005000023 0.96063128905000017 0.76126525810000012
decision_type=2 2 2 2 2 2 2 2 2 2 2 2 2 2 2 2 2 2 2 2 2 2 2 2 2 2 2 2 2 2 2 2 2 2 2 2 2 2 2 2 2 2 2 2 2 2 2 2 2 2 2 2 2 2 2 2 2 2 2 2 2 2 2
left_child=3 2 23 -1 -3 -4 7 8 -5 14 11 -11 13 -7 -8 16 -14 -18 -17 20 21 -16 -22 24 33 26 27 28 29 30 -25 36 53 40 -33 -30 -32 -28 39 -26 41 -2 -24 -44 -45 46 -6 -19 -20 50 51 -50 -31 -27 -48 -21 -57 -58 -59 62 -61 -62 -60
right_child=1 4 5 6 45 12 9 -9 -10 10 -12 -13 15 -15 19 18 17 47 48 55 22 -23 42 25 38 32 37 -29 35 52 31 34 -34 -35 -36 -37 -38 -39 -40 -41 -42 -43 43 44 -46 -47 54 -49 49 -51 -52 -53 -54 -55 -56 56 57 58 59 60 61 -63 -64
leaf_value=-0.0068249180250374991 0.014411100999042257 -0.0032110141139736741 -0.0104152218115832 0.01103104557591564 0.035483863505274001 -0.00098271415633904933 -0.0071764336052130319 -0.010409334451848749 0.04397783798683879 0.040961421615792276 -0.010398298645299779 0.0051738148727126293 0.026472443108453397 0.042021630288528171 0.0052008612911410195 -0.010409596049322898 -0.010422618171815553 0.028055015751667384 -0.0066596849365751724 -0.0062097033200482271 -0.0069012582975265403 0.046854806189383931 0.025981130920760855 0.046244350632653503 0.0052663234787355398 0.0071165835250073285 0.015676235094034451 0.038988804195161465 0.021354206879862062 -0.0055955426294491675 0.013510983705876204 -0.010430183510441697 0.020455472591158399 -0.0081041346499604976 0.022875100098878602 -0.0047482189907408134 0.044985315170223139 0.045103899843705955 0.0029566688258344893 0.039376776414465728 0.021423507508029158 -0.010386192260881293 0.028667163720267654 -0.0067006020875126646 0.012631443987025736 0.026780922377274145 0.011081772879421184 0.0017915148472401785 0.026690614035459862 -0.010394295545793028 0.027918081723690535 -0.0048028956010332316 0.015286047795833571 -0.008662701813414617 -0.010515669061320405 0.017357889975726237 -0.0050065648758680446 0.020952032527175857 0.00043080951025707237 -0.0035210239791235859 0.043525890119974736 -0.00099901707168220015 -0.0090681527510272225
leaf_count=819 32 37 145 24 22 58 443 52 22 22 29 32 28 23 36 159 45 20 72 332 159 23 21 26 29 28 26 23 22 52 20 34 29 238 23 181 29 24 37 32 34 43 20 71 32 54 20 20 20 38 24 45 20 149 23 38 565 25 471 79 28 57 216
internal_value=0 0.39365 0.27736 -0.258315 1.51199 -0.138913 -0.141454 0.972592 2.88658 -0.186325 1.08104 2.06151 0.0957267 1.23337 -0.230207 -0.0985499 0.770484 0.158995 -0.380354 -0.134593 0.370323 2.20664 0.0200969 0.525356 0.142883 0.758272 1.14684 0.910375 0.726066 1.57488 2.37565 1.73356 -0.181083 -0.332228 0.306996 -0.166799 3.24603 2.99431 1.59349 2.31796 0.709102 0.0529547 0.749271 0.428924 -0.0402068 1.93563 1.22524 1.46168 0.130689 0.5563 1.1614 0.504373 0.011585 -0.602911 -0.0449734 -0.2375 -0.152784 -0.204435 -0.0168095 -0.0813392 0.586481 1.42945 -0.244528
internal_count=5600 1984 1828 3616 156 697 2797 98 46 2699 83 54 552 81 2616 471 113 85 358 2173 362 59 303 1131 445 686 480 430 407 204 132 106 206 347 57 203 49 50 98 61 109 75 144 123 103 119 65 40 199 127 89 65 72 177 43 1811 1479 1441 876 851 164 85 687
shrinkage=0.01


Tree=18
num_leaves=64
num_cat=0
split_feature=4 3 5 2 5 5 0 2 2 4 2 2 2 2 5 5 2 2 2 5 0 2 3 3 0 2 2 3 2 2 6 5 5 2 0 5 3 2 5 0 5 6 4 3 2 4 4 4 5 6 4 4 2 2 6 0 4 4 3 4 6 4 2
split_gain=20.408 9.82222 7.15676 6.40664 5.57047 5.47746 4.98439 14.5945 5.3296 6.58354 6.52396 4.97839 4.63174 7.44356 4.38794 4.04793 8.28061 8.24672 5.73355 4.01373 7.56093 4.42248 4.83912 11.1793 3.84275 11.2562 9.75919 8.01813 8.9249 11.9235 9.93019 7.38264 7.25933 8.69966 6.23062 5.74091 5.47174 4.48552 4.38586 3.69236 7.14371 3.59057 4.06008 3.56692 3.12722 5.17128 3.192 2.95329 8.51488 2.85841 2.78481 2.75178 5.95408 2.39289 2.33036 2.29653 2.12263 5.10664 2.88732 4.22772 3.33214 4.74222 4.68949
threshold=0.83769040020000007 0.50024987510000007 0.39855990275000003 0.49085374470000004 0.40329885370000007 0.41988086800000007 1.0000000180025095e-35 0.7260767546500001 1.5698326800500002 0.76453545525000011 1.6778889864000002 0.66025558990000011 1.3255894443500003 1.2451153996000002 0.31882588455000005 0.35440087485000005 0.60337586375000007 0.56871559190000009 0.86800775780000017 0.40963391020000001 0.65000000000000002 0.46165413655000004 0.42420513495000006 0.44715768680000006 0.65000000000000002 0.86367671460000006 1.2269117140500001 0.42996224345000006 1.1468707344000002 0.74267250905000004 3.6736043311500004 0.38639349505000004 0.3166225578500001 0.60853301805000004 0.25000000000000006 0.38255717970000003 0.34603945240000006 0.52231447470000003 0.36755949380000003 0.55000000000000016 0.34190638865000006 3.6736043311500004 0.89616376770000017 0.46893495140000002 0.91224296980000008 0.58065401445000009 0.75759241965000002 1.4369999985500002 0.44130479235000003 3.3903632027500001 1.0119992801000002 1.0544790826500001 0.86800775780000017 0.67523140215000022 3.2394512253000003 0.45000000000000007 0.60958256860000015 0.61794781580000013 0.37067024925000008 0.63339404515000008 3.3903632027500001 0.76126525810000012 0.77801829005000023
decision_type=2 2 2 2 2 2 2 2 2 2 2 2 2 2 2 2 2 2 2 2 2 2 2 2 2 2 2 2 2 2 2 2 2 2 2 2 2 2 2 2 2 2 2 2 2 2 2 2 2 2 2 2 2 2 2 2 2 2 2 2 2 2 2
left_child=3 2 24 -1 -4 -3 7 11 14 10 -10 -5 13 19 -8 16 17 -16 -18 20 -6 22 -21 -24 25 34 27 28 29 30 32 54 -26 37 41 -35 -31 -34 -29 40 -27 42 -2 -25 -20 -46 -47 48 -7 -23 -22 52 -51 -32 -28 -50 -17 -58 -59 -60 61 -61 -62
right_child=1 5 4 6 12 47 8 -9 9 -11 -12 -13 -14 -15 15 56 18 -19 44 21 50 49 23 43 26 39 31 38 -30 36 53 -33 33 35 -36 -37 -38 -39 -40 -41 -42 -43 -44 -45 45 46 -48 -49 55 51 -52 -53 -54 -55 -56 -57 57 58 59 60 62 -63 -64
leaf_value=-0.0067998496618476298 0.014078163338187248 -0.0031883730769026704 -0.010410924618882069 0.01081019955564087 -0.010397480770743069 0.034027960689178259 -0.0071523131207577098 -0.010405102392340691 0.039070751138537183 -0.010394190346688335 0.005097782504765001 0.041858642794863704 -0.01040547496534191 0.029368394843483876 0.0051240007234765218 -0.0061831829381568532 -0.0068762022565386173 0.044422504070803892 0.025113497664190701 -0.010409224709366137 0.038669499020587882 -0.010397174057722145 0.042879746674045982 -0.01042562895954703 0.043912096039498374 0.0051887113614052117 0.0069995653833813858 0.042961550018265342 0.037262123552879348 0.020734537187627865 -0.0055682165937398012 0.019878353208290598 0.01321156718833193 -0.010425727612019729 -0.0080836744854069567 0.022174097154181085 -0.0047213662688849649 0.042749475768445518 0.015255764870902284 0.0029191597009194247 0.037611714544200092 0.020792594716025715 -0.010382202391904764 0.014039621536870517 0.027640823281795006 -0.0066748063468004002 0.012361270130481147 0.025893477942416539 0.011042681807679963 -0.010394903814836595 0.012861014829072155 -0.0048521493341617287 0.024757445289276463 0.014921477781556407 -0.0086449899629344618 -0.010513620128900582 0.016910854826073785 -0.0049796104491626018 0.02034618601591549 0.00042633128662936809 -0.003497217547559924 -0.0090536199285593567 0.013962554179307186
leaf_count=819 32 37 145 24 25 22 443 52 22 29 32 22 83 21 36 332 159 23 21 30 20 122 24 30 26 29 28 24 23 22 52 29 20 34 238 23 181 29 26 37 32 34 43 29 20 71 32 54 20 23 23 94 28 20 149 23 38 565 25 471 79 216 85
internal_value=0 0.388167 0.273743 -0.256394 -0.137802 1.47667 -0.140282 0.954176 -0.184828 1.05945 2.00258 2.78408 0.0945604 0.287858 -0.228431 -0.133458 0.365217 2.1399 0.0198189 0.132077 1.28008 -0.0731512 0.757165 1.36292 0.517439 0.141163 0.745299 1.12328 0.893564 0.713835 1.53648 -0.17963 2.30104 1.68879 -0.329962 0.302913 -0.165418 3.11956 2.88466 1.55454 2.24651 0.697283 0.052328 0.21286 0.736532 0.422856 -0.0398571 1.88335 1.19939 -0.441689 2.54157 0.0358233 0.984747 0.0114277 -0.600228 -0.0445926 -0.235671 -0.151504 -0.202804 -0.0166895 -0.0806263 -0.242642 0.57729
internal_count=5600 1984 1828 3616 697 156 2797 98 2699 83 54 46 552 469 2616 2173 362 59 303 448 68 380 113 83 1131 445 686 480 430 407 204 206 132 106 347 57 203 49 50 98 61 109 75 59 144 123 103 119 65 267 43 145 51 72 177 43 1811 1479 1441 876 851 687 164
shrinkage=0.01


Tree=19
num_leaves=64
num_cat=0
split_feature=4 6 2 2 2 0 2 2 4 2 1 2 5 2 5 0 2 4 2 4 1 2 1 2 0 2 5 1 2 2 4 2 2 1 5 5 2 2 2 2 5 6 2 2 2 0 5 0 0 5 5 5 4 1 0 6 0 4 4 0 5 5 5
split_gain=19.9747 7.32526 6.34152 5.6502 9.07035 4.85603 13.9616 5.19146 6.33463 6.03137 4.80164 6.49845 5.41697 10.7808 5.88551 5.45381 7.79324 6.4248 6.03595 5.02954 4.82602 4.80826 5.53224 4.61108 11.6173 4.54135 4.34355 4.78372 4.31554 4.88771 10.1686 3.96278 11.0058 4.39228 4.2162 3.74343 8.2841 7.56876 4.77605 3.75507 3.76033 3.4254 3.38238 3.40106 11.1553 3.11488 3.18561 3.27162 2.66571 2.57534 2.50373 2.75055 2.14645 2.07023 2.66955 3.52861 4.00221 2.00971 10.7772 4.90445 6.61802 1.96355 6.71566
threshold=0.83769040020000007 2.5476205269500007 0.49085374470000004 1.3351029102000003 1.3135115096000003 1.0000000180025095e-35 0.7260767546500001 1.5698326800500002 0.76453545525000011 1.6778889864000002 0.95000000000000007 1.0641897921500003 0.50074937610000014 0.50590256435000003 0.38294894365000004 0.55000000000000016 1.1198493115000001 0.8426863896500002 0.86367671460000006 0.9552383767 0.35000000000000003 1.1644472860500001 1.1500000000000001 0.62873876790000016 0.8500000000000002 0.66025558990000011 0.31882588455000005 1.4500000000000002 0.70156072470000008 0.76872456620000007 0.91636859495000011 1.0465717738000002 1.1644472860500001 0.35000000000000003 0.40329885370000007 0.35440087485000005 0.60337586375000007 0.56871559190000009 0.86800775780000017 1.2933724787000003 0.33060547050000005 2.9142135623500005 0.89564918890000011 0.69439718415000018 0.66214608985000012 0.25000000000000006 0.37060755395000006 0.15000000000000005 0.8500000000000002 0.33977869490000007 0.36523962170000007 0.31882588455000005 0.89616376770000017 1.0000000180025095e-35 0.35000000000000003 2.7370892179000008 1.0000000180025095e-35 1.1215579303000003 1.0238287968500004 0.15000000000000005 0.41904651980000013 0.38606993640000004 0.39465161815000011
decision_type=2 2 2 2 2 2 2 2 2 2 2 2 2 2 2 2 2 2 2 2 2 2 2 2 2 2 2 2 2 2 2 2 2 2 2 2 2 2 2 2 2 2 2 2 2 2 2 2 2 2 2 2 2 2 2 2 2 2 2 2 2 2 2
left_child=2 -2 53 4 10 6 25 26 9 -9 12 19 14 -14 15 18 17 -17 45 -12 -20 -13 -23 24 52 -4 -7 35 -25 30 -30 33 34 42 -33 36 37 -28 -38 40 48 -42 43 44 57 46 47 -3 -40 -26 51 -31 -19 54 55 -1 -57 58 59 60 -16 -37 -63
right_child=1 3 5 -5 -6 7 -8 8 -10 -11 11 21 13 -15 31 16 -18 23 20 -21 -22 22 -24 28 49 -27 27 -29 29 50 -32 32 -34 -35 -36 61 38 -39 39 -41 41 -43 -44 -45 -46 -47 -48 -49 -50 -51 -52 -53 -54 -55 -56 56 -58 -59 -60 -61 -62 62 -64
leaf_value=-0.010373239291129207 0.03134992006262808 -0.010394698738313704 0.010596032850300259 -0.0028591699291948725 0.032256142598028316 -0.0071281393928754435 -0.010400915702466616 0.037336867273439989 -0.010390126018443076 0.0050232297900575694 0.0098391730130267842 -0.010482941057715238 0.031392386822820834 -0.0040665634440537769 0.026845628951575492 0.032814121416446816 0.031631018133514849 0.0090644828875198688 0.032557574526595856 0.040486799802609399 0.00029889053489667877 0.03234821921008315 0.0018028496981809302 -0.01044754072342481 0.02124852122132408 0.039924782731358993 0.0050486457260888089 0.020907545049523638 -0.010420267204612981 -0.0050277715794216646 0.035602495289674976 0.0074510205521586652 -0.010450459324619648 -0.0089808858574476121 0.033684259426284564 -0.0039402191432141897 -0.0067997750577327241 0.042218011525587178 -0.010424616598571714 -0.010414918773711009 0.0067409601555845078 0.030749768384174165 0.017702482803962284 -0.010390980545741214 0.036453643801076005 -0.0084293703205403359 0.018522789801767456 0.01401733863816629 0.013464657461837195 0.043178414379869877 -0.010419716019787266 0.010631968662411792 -0.010433539603228672 -0.0078656511362978736 -0.010367224065702674 0.0012228582926730029 0.033644670749188421 -0.0075043365295231037 0.028115406028126198 -0.008437106442929913 -0.010408587655637788 0.005687262845653007 -0.0048209501329429319
leaf_count=23 21 46 24 305 24 443 52 22 29 32 22 31 33 37 28 20 33 26 20 25 21 20 39 55 29 22 36 23 20 48 32 27 46 190 31 1123 157 23 28 28 30 30 25 82 22 143 27 22 20 20 39 68 32 707 44 25 20 83 34 135 23 276 399
